%YAML:1.0
my_svm: !!opencv-ml-svm
   svm_type: C_SVC
   kernel: { type:RBF, gamma:1.0000000000000001e-005 }
   C: 2.5000000000000000e+000
   term_criteria: { epsilon:2.2204460492503131e-016, iterations:500 }
   var_all: 120
   var_count: 120
   class_count: 2
   class_labels: !!opencv-matrix
      rows: 1
      cols: 2
      dt: i
      data: [ -1, 1 ]
   sv_total: 142
   support_vectors:
      - [ 0., 0., 0., 0., 0., 0., 0., 0., 0., 0., 0., 0., 255., 202.,
          255., 156., 0., 0., 0., 0., 0., 0., 241., 80., 139., 47., 0.,
          0., 0., 0., 0., 0., 188., 20., 202., 35., 0., 0., 0., 0., 0.,
          0., 0., 0., 139., 38., 0., 0., 0., 0., 0., 0., 255., 0., 93.,
          244., 0., 0., 0., 0., 0., 0., 192., 255., 123., 67., 0., 0.,
          0., 0., 0., 0., 211., 173., 46., 47., 0., 0., 0., 0., 0., 0.,
          111., 19., 0., 0., 0., 0., 0., 0., 0., 0., 52., 0., 0., 0., 0.,
          0., 0., 0., 0., 0., 192., 255., 192., 255., 0., 0., 0., 0., 0.,
          0., 4., 222., 84., 44., 0., 0., 0., 0. ]
      - [ 0., 0., 158., 84., 0., 0., 0., 0., 0., 0., 0., 0., 85., 139.,
          255., 17., 0., 0., 0., 0., 0., 0., 154., 33., 227., 85., 0.,
          0., 0., 0., 0., 0., 241., 182., 238., 224., 0., 0., 0., 0., 0.,
          0., 29., 82., 0., 0., 0., 0., 0., 0., 0., 0., 30., 0., 255.,
          0., 0., 0., 0., 0., 0., 0., 192., 255., 192., 255., 0., 0., 0.,
          0., 0., 0., 157., 1., 99., 114., 0., 0., 0., 0., 0., 0., 131.,
          118., 0., 0., 0., 0., 0., 0., 0., 0., 80., 0., 0., 0., 0., 0.,
          0., 0., 0., 0., 192., 255., 192., 255., 0., 0., 0., 0., 0., 0.,
          0., 0., 233., 1., 0., 0., 0., 0. ]
      - [ 0., 0., 0., 0., 0., 0., 0., 0., 0., 0., 0., 0., 255., 218.,
          255., 208., 0., 0., 0., 0., 0., 0., 199., 48., 59., 70., 0.,
          0., 0., 0., 0., 0., 242., 22., 160., 101., 0., 0., 0., 0., 0.,
          0., 0., 0., 0., 0., 0., 0., 0., 0., 0., 0., 255., 0., 255., 0.,
          0., 0., 0., 0., 0., 0., 192., 255., 192., 255., 0., 0., 0., 0.,
          0., 0., 203., 10., 58., 35., 0., 0., 0., 0., 0., 0., 0., 0.,
          0., 0., 0., 0., 0., 0., 0., 0., 255., 0., 0., 80., 0., 0., 0.,
          0., 0., 0., 192., 255., 42., 68., 0., 0., 0., 0., 0., 0., 156.,
          13., 242., 20., 0., 0., 0., 0. ]
      - [ 0., 0., 0., 0., 0., 0., 0., 0., 0., 0., 0., 0., 255., 0., 255.,
          32., 0., 0., 0., 0., 0., 0., 192., 255., 50., 83., 0., 0., 0.,
          0., 0., 0., 96., 29., 68., 233., 0., 0., 0., 0., 0., 0., 0.,
          0., 171., 114., 0., 0., 0., 0., 0., 0., 255., 199., 77., 0.,
          0., 0., 0., 0., 0., 0., 1., 28., 192., 255., 0., 0., 0., 0.,
          0., 0., 239., 5., 189., 31., 0., 0., 0., 0., 0., 0., 218., 23.,
          0., 0., 0., 0., 0., 0., 0., 0., 87., 0., 0., 0., 0., 0., 0.,
          0., 0., 0., 192., 255., 192., 255., 0., 0., 0., 0., 0., 0., 0.,
          0., 212., 160., 0., 0., 0., 0. ]
      - [ 0., 0., 0., 0., 132., 52., 0., 0., 0., 0., 255., 0., 255.,
          178., 70., 0., 0., 0., 0., 0., 192., 255., 13., 39., 192.,
          255., 0., 0., 0., 0., 89., 215., 218., 32., 237., 208., 0., 0.,
          0., 0., 0., 0., 0., 0., 0., 0., 0., 0., 0., 0., 0., 0., 255.,
          0., 255., 0., 0., 0., 0., 0., 0., 0., 192., 255., 192., 255.,
          0., 0., 0., 0., 0., 0., 58., 177., 113., 239., 0., 0., 0., 0.,
          0., 0., 202., 14., 0., 0., 0., 0., 0., 0., 0., 0., 88., 144.,
          0., 0., 0., 0., 0., 0., 0., 0., 160., 87., 192., 255., 0., 0.,
          0., 0., 0., 0., 30., 33., 106., 64., 0., 0., 0., 0. ]
      - [ 0., 0., 0., 0., 0., 0., 0., 0., 0., 0., 0., 0., 255., 0., 255.,
          0., 0., 0., 0., 0., 0., 0., 192., 255., 192., 255., 0., 0., 0.,
          0., 0., 0., 230., 255., 32., 55., 0., 0., 0., 0., 0., 0., 0.,
          0., 0., 0., 0., 0., 0., 0., 0., 0., 255., 127., 255., 127., 0.,
          0., 0., 0., 0., 0., 82., 42., 168., 40., 0., 0., 0., 0., 0.,
          0., 195., 36., 124., 212., 0., 0., 0., 0., 0., 0., 0., 0., 31.,
          53., 0., 0., 0., 0., 0., 0., 255., 59., 52., 49., 0., 0., 0.,
          0., 0., 0., 22., 44., 130., 78., 0., 0., 0., 0., 0., 0., 170.,
          218., 200., 214., 0., 0., 0., 0. ]
      - [ 0., 0., 241., 160., 83., 43., 0., 0., 0., 0., 0., 0., 71.,
          255., 91., 19., 0., 0., 0., 0., 0., 0., 156., 82., 214., 69.,
          0., 0., 0., 0., 0., 0., 234., 46., 58., 47., 0., 0., 0., 0.,
          0., 0., 0., 0., 0., 0., 0., 0., 0., 0., 0., 0., 255., 239.,
          255., 254., 0., 0., 0., 0., 0., 0., 34., 52., 49., 39., 0., 0.,
          0., 0., 0., 0., 139., 136., 54., 2., 0., 0., 0., 0., 0., 0.,
          0., 0., 0., 0., 0., 0., 0., 0., 0., 0., 255., 0., 255., 0., 0.,
          0., 0., 0., 0., 0., 192., 255., 192., 255., 0., 0., 0., 0., 0.,
          0., 0., 0., 6., 186., 0., 0., 0., 0. ]
      - [ 0., 0., 0., 0., 0., 0., 0., 0., 0., 0., 0., 0., 255., 49.,
          255., 122., 0., 0., 0., 0., 0., 0., 178., 80., 19., 76., 0.,
          0., 0., 0., 0., 0., 239., 52., 71., 29., 0., 0., 0., 0., 0.,
          0., 0., 0., 39., 112., 0., 0., 0., 0., 0., 0., 255., 30., 68.,
          121., 0., 0., 0., 0., 0., 0., 34., 74., 130., 53., 0., 0., 0.,
          0., 0., 0., 163., 47., 22., 91., 0., 0., 0., 0., 0., 0., 184.,
          17., 0., 0., 0., 0., 0., 0., 0., 0., 69., 200., 255., 0., 0.,
          0., 0., 0., 0., 0., 61., 41., 192., 255., 0., 0., 0., 0., 0.,
          0., 126., 254., 202., 222., 0., 0., 0., 0. ]
      - [ 0., 0., 0., 0., 0., 0., 0., 0., 0., 0., 0., 0., 255., 206.,
          255., 167., 0., 0., 0., 0., 0., 0., 237., 55., 65., 83., 0.,
          0., 0., 0., 0., 0., 155., 39., 250., 236., 0., 0., 0., 0., 0.,
          0., 107., 24., 99., 144., 0., 0., 0., 0., 0., 0., 51., 0., 92.,
          0., 0., 0., 0., 0., 0., 0., 29., 66., 192., 255., 0., 0., 0.,
          0., 0., 0., 164., 3., 16., 182., 0., 0., 0., 0., 0., 0., 0.,
          0., 0., 0., 0., 0., 0., 0., 0., 0., 255., 74., 0., 25., 0., 0.,
          0., 0., 0., 0., 32., 91., 224., 50., 0., 0., 0., 0., 0., 0.,
          143., 25., 63., 7., 0., 0., 0., 0. ]
      - [ 0., 0., 0., 0., 89., 95., 0., 0., 0., 0., 0., 0., 255., 0.,
          94., 0., 0., 0., 0., 0., 0., 0., 192., 255., 192., 255., 0.,
          0., 0., 0., 0., 0., 92., 174., 166., 22., 0., 0., 0., 0., 0.,
          0., 0., 0., 0., 0., 0., 0., 0., 0., 0., 0., 255., 47., 255.,
          0., 0., 0., 0., 0., 0., 0., 160., 68., 192., 255., 0., 0., 0.,
          0., 0., 0., 32., 234., 37., 156., 0., 0., 0., 0., 0., 0., 234.,
          116., 0., 0., 0., 0., 0., 0., 0., 0., 48., 0., 0., 172., 0.,
          0., 0., 0., 0., 0., 192., 255., 155., 59., 0., 0., 0., 0., 0.,
          0., 229., 178., 193., 2., 0., 0., 0., 0. ]
      - [ 0., 0., 2., 20., 48., 118., 0., 0., 0., 0., 255., 254., 65.,
          0., 67., 121., 0., 0., 0., 0., 218., 27., 192., 255., 40., 90.,
          0., 0., 0., 0., 0., 0., 234., 218., 43., 57., 0., 0., 0., 0.,
          0., 0., 0., 0., 76., 22., 0., 0., 0., 0., 0., 0., 255., 9.,
          92., 23., 0., 0., 0., 0., 0., 0., 162., 79., 54., 76., 0., 0.,
          0., 0., 0., 0., 116., 204., 7., 127., 0., 0., 0., 0., 0., 0.,
          0., 0., 0., 0., 0., 0., 0., 0., 0., 10., 255., 71., 0., 0., 0.,
          0., 0., 0., 40., 80., 137., 53., 192., 255., 0., 0., 0., 0.,
          92., 26., 113., 38., 180., 52., 0., 0., 0., 0. ]
      - [ 50., 129., 0., 0., 102., 60., 0., 0., 0., 0., 29., 0., 255.,
          0., 91., 0., 0., 0., 0., 0., 0., 0., 192., 255., 192., 255.,
          0., 0., 0., 0., 0., 0., 64., 20., 125., 238., 0., 0., 0., 0.,
          0., 0., 0., 0., 0., 0., 0., 0., 0., 0., 0., 0., 255., 0., 255.,
          0., 0., 0., 0., 0., 0., 0., 192., 255., 192., 255., 0., 0., 0.,
          0., 0., 0., 79., 26., 118., 158., 0., 0., 0., 0., 0., 0., 0.,
          0., 0., 0., 0., 0., 0., 0., 0., 0., 255., 14., 255., 0., 0.,
          0., 0., 0., 0., 0., 246., 87., 192., 255., 0., 0., 0., 0., 0.,
          0., 0., 0., 102., 41., 0., 0., 0., 0. ]
      - [ 0., 0., 156., 98., 0., 0., 0., 0., 0., 0., 0., 0., 59., 166.,
          255., 88., 0., 0., 0., 0., 0., 0., 166., 44., 108., 93., 0.,
          0., 0., 0., 0., 0., 11., 2., 140., 3., 0., 0., 0., 0., 0., 0.,
          138., 139., 0., 0., 0., 0., 0., 0., 0., 0., 47., 0., 255., 64.,
          0., 0., 0., 0., 0., 0., 192., 255., 49., 56., 0., 0., 0., 0.,
          0., 0., 98., 200., 233., 45., 0., 0., 0., 0., 0., 0., 78., 22.,
          0., 0., 0., 0., 0., 0., 0., 0., 54., 233., 255., 149., 0., 0.,
          0., 0., 0., 0., 169., 81., 11., 82., 0., 0., 0., 0., 0., 0.,
          29., 184., 30., 41., 0., 0., 0., 0. ]
      - [ 0., 0., 0., 0., 33., 57., 0., 0., 0., 0., 0., 0., 255., 187.,
          78., 208., 0., 0., 0., 0., 0., 0., 13., 48., 237., 89., 0., 0.,
          0., 0., 0., 0., 64., 123., 138., 71., 0., 0., 0., 0., 0., 0.,
          128., 96., 0., 0., 0., 0., 0., 0., 0., 0., 40., 0., 255., 243.,
          0., 0., 0., 0., 0., 0., 192., 255., 129., 80., 0., 0., 0., 0.,
          0., 0., 59., 171., 111., 240., 0., 0., 0., 0., 0., 0., 0., 0.,
          0., 0., 0., 0., 0., 0., 0., 0., 255., 0., 0., 222., 0., 0., 0.,
          0., 0., 0., 192., 255., 254., 47., 0., 0., 0., 0., 0., 0., 94.,
          169., 44., 244., 0., 0., 0., 0. ]
      - [ 0., 0., 0., 0., 235., 109., 0., 0., 0., 0., 0., 0., 255., 0.,
          91., 0., 0., 0., 0., 0., 0., 0., 192., 255., 192., 255., 0.,
          0., 0., 0., 0., 0., 210., 41., 205., 0., 0., 0., 0., 0., 0.,
          0., 16., 19., 0., 0., 0., 0., 0., 0., 0., 0., 29., 111., 255.,
          105., 0., 0., 0., 0., 0., 0., 175., 34., 15., 55., 0., 0., 0.,
          0., 0., 0., 118., 173., 100., 214., 0., 0., 0., 0., 0., 0., 0.,
          0., 0., 0., 0., 0., 0., 0., 0., 0., 255., 159., 0., 117., 0.,
          0., 0., 0., 0., 0., 145., 61., 183., 88., 0., 0., 0., 0., 0.,
          0., 29., 39., 9., 33., 0., 0., 0., 0. ]
      - [ 0., 0., 113., 123., 0., 0., 0., 0., 0., 0., 0., 0., 87., 0.,
          255., 0., 0., 0., 0., 0., 0., 0., 192., 255., 192., 255., 0.,
          0., 0., 0., 0., 0., 217., 52., 229., 23., 0., 0., 0., 0., 0.,
          0., 0., 0., 0., 0., 0., 0., 0., 0., 0., 0., 255., 3., 255., 0.,
          0., 0., 0., 0., 0., 0., 246., 27., 192., 255., 0., 0., 0., 0.,
          0., 0., 73., 219., 206., 20., 0., 0., 0., 0., 0., 0., 94.,
          164., 0., 0., 0., 0., 0., 0., 0., 0., 51., 129., 255., 53., 0.,
          0., 0., 0., 0., 0., 243., 81., 188., 38., 0., 0., 0., 0., 0.,
          0., 0., 0., 5., 228., 0., 0., 0., 0. ]
      - [ 0., 0., 0., 0., 0., 0., 0., 0., 0., 0., 0., 0., 255., 0., 255.,
          0., 0., 0., 0., 0., 0., 0., 192., 255., 192., 255., 0., 0., 0.,
          0., 0., 0., 161., 110., 39., 237., 0., 0., 0., 0., 0., 0.,
          127., 3., 182., 20., 0., 0., 0., 0., 0., 0., 29., 0., 64., 0.,
          0., 0., 0., 0., 0., 0., 192., 255., 192., 255., 0., 0., 0., 0.,
          0., 0., 70., 46., 86., 174., 0., 0., 0., 0., 0., 0., 0., 0.,
          0., 0., 0., 0., 0., 0., 0., 0., 255., 0., 255., 0., 0., 0., 0.,
          0., 0., 0., 192., 255., 192., 255., 0., 0., 0., 0., 0., 0.,
          195., 34., 166., 26., 0., 0., 0., 0. ]
      - [ 0., 0., 146., 114., 222., 10., 0., 0., 0., 0., 0., 0., 74.,
          211., 32., 0., 0., 0., 0., 0., 0., 0., 100., 52., 192., 255.,
          0., 0., 0., 0., 0., 0., 236., 48., 196., 12., 0., 0., 0., 0.,
          0., 0., 0., 0., 0., 0., 0., 0., 0., 0., 0., 0., 255., 37.,
          255., 179., 0., 0., 0., 0., 0., 0., 161., 58., 161., 59., 0.,
          0., 0., 0., 0., 0., 36., 13., 67., 68., 0., 0., 0., 0., 0., 0.,
          0., 0., 0., 0., 0., 0., 0., 0., 0., 0., 255., 253., 255., 80.,
          0., 0., 0., 0., 0., 0., 211., 52., 251., 45., 0., 0., 0., 0.,
          0., 0., 167., 14., 109., 11., 0., 0., 0., 0. ]
      - [ 0., 0., 152., 156., 0., 0., 0., 0., 0., 0., 0., 0., 83., 0.,
          255., 0., 0., 0., 0., 0., 0., 0., 192., 255., 192., 255., 0.,
          0., 0., 0., 0., 0., 60., 182., 176., 19., 0., 0., 0., 0., 0.,
          0., 0., 0., 0., 0., 0., 0., 0., 0., 0., 0., 255., 21., 255.,
          0., 0., 0., 0., 0., 0., 0., 123., 34., 192., 255., 0., 0., 0.,
          0., 0., 0., 133., 35., 42., 35., 0., 0., 0., 0., 0., 0., 0.,
          0., 237., 40., 0., 0., 0., 0., 0., 0., 255., 0., 29., 0., 0.,
          0., 0., 0., 0., 0., 192., 255., 192., 255., 0., 0., 0., 0., 0.,
          0., 151., 46., 229., 37., 0., 0., 0., 0. ]
      - [ 0., 0., 243., 4., 72., 109., 0., 0., 0., 0., 0., 0., 46., 113.,
          56., 133., 0., 0., 0., 0., 0., 0., 28., 28., 12., 81., 0., 0.,
          0., 0., 0., 0., 75., 39., 225., 252., 0., 0., 0., 0., 0., 0.,
          0., 0., 0., 0., 0., 0., 0., 0., 0., 0., 255., 87., 255., 0.,
          0., 0., 0., 0., 0., 0., 59., 48., 192., 255., 0., 0., 0., 0.,
          0., 0., 204., 31., 39., 171., 0., 0., 0., 0., 0., 0., 0., 0.,
          218., 55., 0., 0., 0., 0., 0., 0., 255., 0., 51., 0., 0., 0.,
          0., 0., 0., 0., 192., 255., 192., 255., 0., 0., 0., 0., 0., 0.,
          173., 45., 137., 12., 0., 0., 0., 0. ]
      - [ 0., 0., 0., 0., 0., 0., 0., 0., 0., 0., 0., 0., 255., 0., 255.,
          8., 0., 0., 0., 0., 0., 0., 192., 255., 53., 33., 0., 0., 0.,
          0., 0., 0., 142., 174., 154., 4., 0., 0., 0., 0., 0., 0., 131.,
          117., 0., 0., 0., 0., 0., 0., 0., 0., 48., 0., 255., 149., 0.,
          0., 0., 0., 0., 0., 192., 255., 27., 85., 0., 0., 0., 0., 0.,
          0., 9., 162., 90., 109., 0., 0., 0., 0., 0., 0., 0., 0., 0.,
          0., 0., 0., 0., 0., 0., 0., 255., 163., 0., 152., 0., 0., 0.,
          0., 0., 0., 121., 80., 5., 76., 0., 0., 0., 0., 0., 0., 145.,
          178., 155., 41., 0., 0., 0., 0. ]
      - [ 0., 0., 0., 0., 144., 160., 0., 0., 0., 0., 0., 0., 255., 0.,
          81., 0., 0., 0., 0., 0., 0., 0., 192., 255., 192., 255., 0.,
          0., 0., 0., 0., 0., 85., 10., 173., 14., 0., 0., 0., 0., 0.,
          0., 57., 115., 243., 4., 0., 0., 0., 0., 0., 0., 83., 73., 77.,
          235., 0., 0., 0., 0., 0., 0., 118., 76., 124., 71., 0., 0., 0.,
          0., 0., 0., 182., 247., 250., 224., 0., 0., 0., 0., 0., 0., 0.,
          0., 0., 0., 0., 0., 0., 0., 0., 0., 255., 105., 0., 224., 0.,
          0., 0., 0., 0., 0., 43., 48., 127., 80., 0., 0., 0., 0., 0.,
          0., 46., 1., 135., 132., 0., 0., 0., 0. ]
      - [ 0., 0., 0., 0., 0., 0., 0., 0., 0., 0., 0., 0., 255., 161.,
          255., 0., 0., 0., 0., 0., 0., 0., 194., 52., 192., 255., 0.,
          0., 0., 0., 0., 0., 2., 240., 217., 31., 0., 0., 0., 0., 0.,
          0., 0., 0., 4., 149., 0., 0., 0., 0., 0., 0., 255., 0., 86.,
          216., 0., 0., 0., 0., 0., 0., 192., 255., 13., 40., 0., 0., 0.,
          0., 0., 0., 147., 2., 162., 37., 0., 0., 0., 0., 0., 0., 0.,
          0., 0., 0., 0., 0., 0., 0., 0., 0., 255., 0., 0., 0., 0., 0.,
          0., 0., 0., 0., 192., 255., 192., 255., 0., 0., 0., 0., 0., 0.,
          25., 238., 70., 33., 0., 0., 0., 0. ]
      - [ 0., 0., 0., 0., 0., 0., 0., 0., 0., 0., 0., 0., 255., 22.,
          255., 0., 0., 0., 0., 0., 0., 0., 22., 60., 192., 255., 0., 0.,
          0., 0., 0., 0., 251., 104., 145., 50., 0., 0., 0., 0., 0., 0.,
          7., 153., 0., 0., 0., 0., 0., 0., 0., 0., 53., 110., 255., 0.,
          0., 0., 0., 0., 0., 0., 63., 52., 192., 255., 0., 0., 0., 0.,
          0., 0., 127., 25., 154., 51., 0., 0., 0., 0., 0., 0., 0., 0.,
          0., 0., 0., 0., 0., 0., 0., 0., 255., 58., 255., 0., 0., 0.,
          0., 0., 0., 0., 218., 89., 192., 255., 0., 0., 0., 0., 0., 0.,
          0., 0., 180., 22., 0., 0., 0., 0. ]
      - [ 128., 164., 0., 0., 0., 0., 0., 0., 0., 0., 29., 0., 255., 0.,
          255., 0., 0., 0., 0., 0., 0., 0., 192., 255., 192., 255., 0.,
          0., 0., 0., 0., 0., 152., 37., 105., 8., 0., 0., 0., 0., 0.,
          0., 0., 0., 57., 130., 0., 0., 0., 0., 255., 86., 255., 122.,
          44., 0., 0., 0., 0., 0., 245., 56., 120., 61., 192., 255., 0.,
          0., 0., 0., 28., 17., 137., 46., 34., 188., 0., 0., 0., 0.,
          107., 172., 187., 66., 0., 0., 0., 0., 0., 0., 65., 226., 74.,
          192., 255., 232., 0., 0., 0., 0., 115., 56., 177., 60., 107.,
          92., 0., 0., 0., 0., 193., 19., 159., 47., 143., 9., 0., 0.,
          0., 0. ]
      - [ 0., 0., 0., 0., 0., 0., 0., 0., 0., 0., 0., 0., 255., 0., 255.,
          123., 0., 0., 0., 0., 0., 0., 192., 255., 170., 80., 0., 0.,
          0., 0., 0., 0., 76., 31., 173., 72., 0., 0., 0., 0., 0., 0.,
          0., 0., 0., 0., 0., 0., 0., 0., 0., 0., 255., 15., 255., 0.,
          0., 0., 0., 0., 0., 0., 135., 60., 192., 255., 0., 0., 0., 0.,
          0., 0., 241., 9., 185., 141., 0., 0., 0., 0., 0., 0., 0., 0.,
          0., 0., 0., 0., 0., 0., 0., 0., 255., 0., 0., 0., 0., 0., 0.,
          0., 0., 0., 192., 255., 192., 255., 0., 0., 0., 0., 0., 0., 0.,
          0., 86., 197., 0., 0., 0., 0. ]
      - [ 0., 0., 0., 0., 68., 136., 0., 0., 0., 0., 0., 0., 255., 0.,
          59., 0., 0., 0., 0., 0., 0., 0., 192., 255., 192., 255., 0.,
          0., 0., 0., 224., 70., 153., 72., 135., 49., 0., 0., 0., 0.,
          165., 162., 72., 63., 0., 0., 0., 0., 0., 0., 41., 214., 45.,
          0., 255., 40., 0., 0., 0., 0., 49., 28., 192., 255., 173., 72.,
          0., 0., 0., 0., 0., 0., 240., 170., 53., 218., 0., 0., 0., 0.,
          0., 0., 245., 45., 154., 67., 0., 0., 0., 0., 0., 0., 75.,
          114., 40., 0., 0., 0., 0., 0., 0., 0., 49., 85., 192., 255.,
          0., 0., 0., 0., 0., 0., 203., 4., 92., 208., 0., 0., 0., 0. ]
      - [ 0., 0., 80., 125., 0., 0., 0., 0., 0., 0., 0., 101., 70., 0.,
          255., 0., 0., 0., 0., 0., 204., 76., 192., 255., 192., 255.,
          0., 0., 0., 0., 0., 0., 37., 243., 7., 134., 0., 0., 0., 0.,
          0., 0., 0., 0., 0., 0., 0., 0., 0., 0., 0., 0., 255., 0., 255.,
          0., 0., 0., 0., 0., 0., 0., 192., 255., 192., 255., 0., 0., 0.,
          0., 14., 199., 3., 198., 15., 20., 0., 0., 0., 0., 0., 0., 0.,
          0., 210., 124., 0., 0., 0., 0., 255., 0., 255., 0., 89., 69.,
          0., 0., 0., 0., 192., 255., 192., 255., 37., 43., 0., 0., 0.,
          0., 0., 0., 169., 5., 116., 237., 0., 0., 0., 0. ]
      - [ 0., 0., 138., 147., 51., 121., 0., 0., 0., 0., 0., 0., 42., 0.,
          44., 0., 0., 0., 0., 0., 0., 0., 192., 255., 192., 255., 0.,
          0., 0., 0., 0., 0., 216., 210., 198., 36., 0., 0., 0., 0., 0.,
          0., 0., 0., 206., 73., 0., 0., 0., 0., 0., 0., 255., 0., 45.,
          0., 0., 0., 0., 0., 0., 0., 192., 255., 192., 255., 0., 0., 0.,
          0., 0., 0., 9., 34., 149., 243., 0., 0., 0., 0., 0., 0., 0.,
          0., 144., 58., 0., 0., 0., 0., 0., 0., 255., 91., 48., 27., 0.,
          0., 0., 0., 0., 0., 232., 59., 252., 44., 0., 0., 0., 0., 0.,
          0., 244., 250., 124., 50., 0., 0., 0., 0. ]
      - [ 243., 4., 103., 67., 119., 84., 0., 0., 0., 0., 73., 155., 68.,
          0., 72., 198., 0., 0., 0., 0., 204., 76., 192., 255., 94., 51.,
          0., 0., 0., 0., 0., 0., 228., 41., 9., 4., 0., 0., 0., 0., 0.,
          0., 59., 80., 187., 49., 0., 0., 0., 0., 0., 0., 41., 0., 68.,
          85., 0., 0., 0., 0., 0., 0., 192., 255., 9., 52., 0., 0., 0.,
          0., 0., 0., 184., 228., 249., 40., 0., 0., 0., 0., 0., 0.,
          162., 151., 0., 0., 0., 0., 0., 0., 0., 0., 78., 247., 255.,
          0., 0., 0., 0., 0., 192., 255., 137., 52., 192., 255., 0., 0.,
          0., 0., 177., 30., 134., 35., 186., 244., 0., 0., 0., 0. ]
      - [ 0., 0., 17., 81., 102., 79., 0., 0., 0., 0., 0., 0., 56., 209.,
          35., 0., 0., 0., 0., 0., 0., 0., 175., 70., 192., 255., 0., 0.,
          0., 0., 0., 0., 66., 34., 248., 44., 0., 0., 0., 0., 0., 0.,
          0., 0., 0., 0., 0., 0., 0., 0., 0., 0., 255., 166., 255., 231.,
          0., 0., 0., 0., 0., 0., 21., 52., 75., 47., 0., 0., 0., 0., 0.,
          0., 109., 35., 107., 138., 0., 0., 0., 0., 0., 0., 37., 135.,
          0., 0., 0., 0., 0., 0., 0., 0., 51., 0., 0., 0., 0., 0., 0.,
          0., 0., 0., 192., 255., 192., 255., 0., 0., 0., 0., 0., 0.,
          188., 39., 50., 45., 0., 0., 0., 0. ]
      - [ 0., 0., 68., 69., 0., 0., 0., 0., 0., 0., 0., 0., 63., 0.,
          255., 39., 0., 0., 0., 0., 0., 0., 192., 255., 221., 45., 0.,
          0., 0., 0., 0., 0., 100., 7., 181., 230., 0., 0., 0., 0., 0.,
          0., 0., 0., 37., 33., 0., 0., 0., 0., 0., 0., 255., 69., 40.,
          0., 0., 0., 0., 0., 0., 0., 172., 27., 192., 255., 0., 0., 0.,
          0., 0., 0., 172., 142., 76., 219., 0., 0., 0., 0., 0., 0., 0.,
          0., 0., 0., 0., 0., 0., 0., 0., 0., 255., 0., 255., 0., 0., 0.,
          0., 0., 0., 0., 192., 255., 192., 255., 0., 0., 0., 0., 0., 0.,
          0., 0., 33., 36., 0., 0., 0., 0. ]
      - [ 0., 0., 167., 22., 180., 181., 0., 0., 0., 0., 0., 0., 52.,
          104., 93., 0., 0., 0., 0., 0., 0., 0., 143., 62., 192., 255.,
          0., 0., 0., 0., 0., 0., 65., 136., 153., 26., 0., 0., 0., 0.,
          0., 0., 0., 0., 68., 124., 0., 0., 0., 0., 0., 0., 255., 78.,
          32., 0., 0., 0., 0., 0., 0., 0., 143., 44., 192., 255., 0., 0.,
          0., 0., 0., 0., 36., 255., 157., 144., 0., 0., 0., 0., 0., 0.,
          33., 148., 0., 0., 0., 0., 0., 0., 0., 0., 63., 22., 0., 204.,
          0., 0., 0., 0., 0., 0., 232., 47., 229., 62., 0., 0., 0., 0.,
          0., 0., 137., 241., 156., 40., 0., 0., 0., 0. ]
      - [ 0., 0., 48., 96., 113., 112., 0., 0., 0., 0., 0., 0., 66.,
          127., 93., 0., 0., 0., 0., 0., 0., 0., 237., 27., 192., 255.,
          0., 0., 0., 0., 0., 0., 168., 46., 89., 153., 0., 0., 0., 0.,
          0., 0., 0., 0., 79., 6., 0., 0., 0., 0., 0., 0., 255., 54.,
          51., 229., 0., 0., 0., 0., 0., 0., 39., 28., 81., 94., 0., 0.,
          0., 0., 0., 0., 179., 46., 91., 141., 0., 0., 0., 0., 0., 0.,
          0., 0., 11., 155., 0., 0., 0., 0., 0., 0., 255., 0., 77., 0.,
          0., 0., 0., 0., 0., 0., 192., 255., 192., 255., 0., 0., 0., 0.,
          0., 0., 0., 0., 229., 28., 0., 0., 0., 0. ]
      - [ 97., 77., 0., 0., 209., 6., 0., 0., 0., 0., 30., 211., 255.,
          191., 36., 223., 0., 0., 0., 0., 135., 56., 250., 94., 245.,
          58., 0., 0., 0., 0., 34., 77., 125., 137., 137., 182., 0., 0.,
          0., 0., 0., 0., 0., 0., 238., 85., 0., 0., 0., 0., 255., 96.,
          255., 52., 32., 39., 0., 0., 0., 0., 71., 91., 54., 57., 175.,
          57., 0., 0., 0., 0., 48., 29., 94., 244., 28., 41., 0., 0., 0.,
          0., 131., 51., 102., 73., 31., 53., 0., 0., 0., 0., 29., 0.,
          56., 0., 52., 112., 0., 0., 0., 0., 0., 0., 192., 255., 87.,
          76., 0., 0., 0., 0., 0., 0., 116., 14., 144., 183., 0., 0., 0.,
          0. ]
      - [ 0., 0., 104., 155., 0., 0., 0., 0., 0., 0., 0., 0., 94., 82.,
          255., 190., 0., 0., 0., 0., 0., 0., 67., 44., 43., 93., 0., 0.,
          0., 0., 0., 0., 121., 36., 64., 181., 0., 0., 0., 0., 0., 0.,
          0., 0., 75., 43., 0., 0., 0., 0., 0., 0., 255., 0., 94., 102.,
          0., 0., 0., 0., 0., 0., 192., 255., 38., 92., 0., 0., 0., 0.,
          0., 0., 116., 134., 81., 49., 0., 0., 0., 0., 0., 0., 55., 81.,
          84., 158., 0., 0., 0., 0., 0., 0., 54., 137., 65., 0., 0., 0.,
          0., 0., 0., 0., 110., 35., 192., 255., 0., 0., 0., 0., 0., 0.,
          158., 47., 121., 16., 0., 0., 0., 0. ]
      - [ 0., 0., 53., 80., 108., 137., 0., 0., 0., 0., 0., 0., 80., 0.,
          79., 21., 0., 0., 0., 0., 0., 0., 192., 255., 46., 37., 0., 0.,
          0., 0., 0., 0., 129., 221., 132., 255., 0., 0., 0., 0., 0., 0.,
          0., 0., 0., 0., 0., 0., 0., 0., 0., 0., 255., 0., 255., 0., 0.,
          0., 0., 0., 0., 0., 192., 255., 192., 255., 0., 0., 0., 0., 0.,
          0., 110., 48., 207., 177., 0., 0., 0., 0., 0., 0., 86., 57.,
          68., 173., 0., 0., 0., 0., 0., 0., 73., 44., 80., 236., 0., 0.,
          0., 0., 0., 0., 45., 38., 28., 62., 0., 0., 0., 0., 0., 0.,
          97., 45., 187., 191., 0., 0., 0., 0. ]
      - [ 0., 0., 0., 0., 0., 0., 0., 0., 0., 0., 0., 0., 255., 0., 255.,
          0., 0., 0., 0., 0., 0., 0., 192., 255., 192., 255., 0., 0., 0.,
          0., 0., 0., 211., 216., 135., 209., 0., 0., 0., 0., 0., 0.,
          246., 86., 0., 0., 0., 0., 0., 0., 0., 0., 42., 46., 255.,
          109., 0., 0., 0., 0., 0., 0., 170., 67., 15., 32., 0., 0., 0.,
          0., 0., 0., 18., 17., 68., 123., 0., 0., 0., 0., 0., 0., 44.,
          36., 0., 0., 0., 0., 0., 0., 0., 0., 69., 0., 0., 234., 0., 0.,
          0., 0., 0., 0., 192., 255., 242., 36., 0., 0., 0., 0., 0., 0.,
          0., 0., 65., 26., 0., 0., 0., 0. ]
      - [ 0., 0., 68., 95., 46., 61., 0., 0., 0., 0., 0., 0., 83., 0.,
          37., 0., 0., 0., 0., 0., 0., 0., 192., 255., 192., 255., 0.,
          0., 0., 0., 0., 0., 133., 31., 56., 232., 0., 0., 0., 0., 0.,
          0., 225., 160., 0., 0., 0., 0., 0., 0., 0., 0., 91., 174.,
          255., 0., 0., 0., 0., 0., 0., 0., 50., 84., 192., 255., 0., 0.,
          0., 0., 0., 0., 99., 154., 64., 206., 0., 0., 0., 0., 0., 0.,
          17., 64., 0., 0., 0., 0., 0., 0., 0., 0., 33., 25., 255., 0.,
          0., 0., 0., 0., 0., 0., 212., 65., 192., 255., 0., 0., 0., 0.,
          0., 0., 241., 37., 208., 162., 0., 0., 0., 0. ]
      - [ 0., 0., 131., 92., 0., 0., 0., 0., 0., 0., 0., 0., 79., 0.,
          255., 56., 0., 0., 0., 0., 0., 0., 192., 255., 194., 44., 0.,
          0., 0., 0., 0., 0., 41., 5., 172., 103., 0., 0., 0., 0., 0.,
          0., 211., 29., 0., 0., 0., 0., 0., 0., 0., 0., 60., 214., 255.,
          85., 0., 0., 0., 0., 0., 0., 53., 45., 136., 60., 0., 0., 0.,
          0., 0., 0., 109., 220., 188., 224., 0., 0., 0., 0., 0., 0., 0.,
          0., 0., 0., 0., 0., 0., 0., 0., 0., 255., 0., 0., 146., 0., 0.,
          0., 0., 0., 0., 192., 255., 75., 33., 0., 0., 0., 0., 0., 0.,
          193., 18., 224., 187., 0., 0., 0., 0. ]
      - [ 0., 0., 137., 137., 239., 143., 0., 0., 0., 0., 0., 0., 36.,
          0., 69., 88., 0., 0., 0., 0., 0., 0., 192., 255., 178., 89.,
          0., 0., 0., 0., 0., 0., 109., 140., 170., 35., 0., 0., 0., 0.,
          0., 0., 51., 83., 0., 0., 0., 0., 0., 0., 0., 0., 51., 217.,
          255., 53., 0., 0., 0., 0., 0., 0., 109., 95., 5., 36., 0., 0.,
          0., 0., 0., 0., 17., 252., 176., 28., 0., 0., 0., 0., 0., 0.,
          0., 0., 0., 0., 0., 0., 0., 0., 0., 0., 255., 83., 0., 17., 0.,
          0., 0., 0., 0., 0., 46., 79., 153., 53., 0., 0., 0., 0., 107.,
          47., 32., 131., 240., 254., 0., 0., 0., 0. ]
      - [ 0., 0., 19., 83., 0., 0., 0., 0., 0., 0., 0., 0., 62., 0.,
          255., 242., 0., 0., 0., 0., 0., 0., 192., 255., 254., 59., 0.,
          0., 0., 0., 0., 0., 31., 45., 134., 47., 0., 0., 0., 0., 0.,
          0., 150., 253., 0., 0., 0., 0., 0., 0., 0., 0., 29., 0., 255.,
          0., 0., 0., 0., 0., 0., 0., 192., 255., 192., 255., 0., 0., 0.,
          0., 0., 0., 104., 199., 97., 234., 0., 0., 0., 0., 0., 0., 0.,
          0., 0., 0., 0., 0., 0., 0., 0., 0., 255., 0., 255., 203., 0.,
          0., 0., 0., 0., 0., 192., 255., 230., 58., 0., 0., 0., 0., 0.,
          0., 0., 0., 232., 178., 0., 0., 0., 0. ]
      - [ 0., 0., 128., 135., 0., 0., 0., 0., 0., 0., 0., 0., 54., 67.,
          255., 0., 0., 0., 0., 0., 0., 0., 177., 77., 192., 255., 0.,
          0., 0., 0., 0., 0., 184., 47., 15., 224., 0., 0., 0., 0., 0.,
          0., 131., 120., 13., 100., 0., 0., 0., 0., 0., 0., 56., 0.,
          63., 48., 0., 0., 0., 0., 0., 0., 192., 255., 7., 55., 0., 0.,
          0., 0., 0., 0., 72., 40., 182., 168., 0., 0., 0., 0., 0., 0.,
          184., 79., 0., 0., 0., 0., 0., 0., 0., 0., 67., 234., 255.,
          152., 0., 0., 0., 0., 0., 0., 183., 70., 124., 79., 0., 0., 0.,
          0., 0., 0., 166., 211., 229., 181., 0., 0., 0., 0. ]
      - [ 243., 4., 92., 33., 146., 55., 0., 0., 0., 0., 47., 246., 41.,
          0., 55., 14., 0., 0., 0., 0., 204., 76., 192., 255., 145., 75.,
          0., 0., 0., 0., 170., 69., 109., 26., 158., 44., 0., 0., 0.,
          0., 158., 150., 16., 40., 0., 0., 0., 0., 0., 0., 71., 214.,
          66., 135., 255., 0., 0., 0., 0., 0., 49., 28., 170., 34., 192.,
          255., 0., 0., 0., 0., 0., 0., 28., 253., 109., 50., 0., 0., 0.,
          0., 0., 0., 0., 0., 19., 81., 0., 0., 0., 0., 0., 0., 255.,
          99., 58., 0., 0., 0., 0., 0., 0., 0., 131., 77., 192., 255.,
          0., 0., 0., 0., 0., 0., 71., 27., 54., 36., 0., 0., 0., 0. ]
      - [ 0., 0., 232., 46., 0., 0., 0., 0., 0., 0., 0., 0., 38., 128.,
          255., 233., 0., 0., 0., 0., 0., 0., 111., 46., 197., 49., 0.,
          0., 0., 0., 0., 0., 165., 171., 30., 204., 0., 0., 0., 0., 0.,
          0., 152., 105., 0., 0., 0., 0., 0., 0., 0., 0., 70., 155.,
          255., 79., 0., 0., 0., 0., 0., 0., 108., 79., 57., 85., 0., 0.,
          0., 0., 0., 0., 221., 10., 95., 52., 0., 0., 0., 0., 0., 0.,
          0., 0., 144., 58., 0., 0., 0., 0., 0., 0., 255., 235., 48.,
          182., 0., 0., 0., 0., 0., 0., 46., 62., 112., 43., 0., 0., 0.,
          0., 0., 0., 236., 34., 83., 25., 0., 0., 0., 0. ]
      - [ 0., 0., 0., 0., 0., 0., 0., 0., 0., 0., 0., 0., 255., 177.,
          255., 0., 0., 0., 0., 0., 0., 0., 104., 45., 192., 255., 0.,
          0., 0., 0., 0., 0., 95., 239., 162., 85., 0., 0., 0., 0., 0.,
          0., 27., 80., 141., 33., 0., 0., 0., 0., 0., 0., 68., 126.,
          60., 145., 0., 0., 0., 0., 0., 0., 73., 60., 37., 88., 0., 0.,
          0., 0., 0., 0., 64., 194., 66., 4., 0., 0., 0., 0., 0., 0., 0.,
          0., 0., 0., 0., 0., 0., 0., 0., 0., 255., 9., 0., 0., 0., 0.,
          0., 0., 0., 0., 192., 73., 192., 255., 0., 0., 0., 0., 0., 0.,
          0., 0., 25., 15., 0., 0., 0., 0. ]
      - [ 50., 129., 0., 0., 91., 90., 0., 0., 0., 0., 29., 0., 255., 0.,
          92., 100., 0., 0., 0., 0., 0., 0., 192., 255., 227., 33., 0.,
          0., 0., 0., 0., 0., 12., 227., 22., 1., 0., 0., 0., 0., 0., 0.,
          0., 0., 109., 144., 0., 0., 0., 0., 255., 90., 255., 63., 32.,
          16., 0., 0., 0., 0., 24., 28., 16., 54., 94., 49., 0., 0., 0.,
          0., 0., 0., 95., 30., 244., 51., 0., 0., 0., 0., 0., 0., 82.,
          132., 0., 0., 0., 0., 0., 0., 0., 0., 65., 15., 255., 117., 0.,
          0., 0., 0., 0., 0., 96., 47., 155., 75., 0., 0., 0., 0., 0.,
          0., 143., 57., 171., 31., 0., 0., 0., 0. ]
      - [ 0., 0., 0., 0., 0., 0., 0., 0., 0., 0., 0., 0., 255., 0., 255.,
          0., 0., 0., 0., 0., 0., 0., 192., 255., 192., 255., 0., 0., 0.,
          0., 0., 0., 140., 141., 190., 36., 0., 0., 0., 0., 0., 0.,
          219., 110., 0., 0., 0., 0., 0., 0., 0., 0., 39., 0., 255., 0.,
          0., 0., 0., 0., 0., 0., 192., 255., 192., 255., 0., 0., 0., 0.,
          0., 0., 222., 207., 184., 42., 0., 0., 0., 0., 0., 0., 0., 0.,
          67., 22., 0., 0., 0., 0., 0., 0., 255., 117., 64., 0., 0., 0.,
          0., 0., 0., 0., 234., 57., 192., 255., 0., 0., 0., 0., 0., 0.,
          0., 0., 156., 162., 0., 0., 0., 0. ]
      - [ 0., 0., 38., 18., 142., 174., 0., 0., 0., 0., 0., 0., 85., 0.,
          93., 0., 0., 0., 0., 0., 192., 255., 192., 255., 192., 255.,
          0., 0., 0., 0., 236., 90., 157., 196., 152., 199., 0., 0., 0.,
          0., 0., 0., 0., 0., 0., 0., 0., 0., 0., 0., 0., 0., 255., 166.,
          255., 0., 0., 0., 0., 0., 0., 0., 39., 61., 192., 255., 0., 0.,
          0., 0., 0., 0., 231., 8., 181., 238., 0., 0., 0., 0., 0., 0.,
          0., 0., 0., 0., 0., 0., 0., 0., 0., 0., 255., 0., 255., 0., 0.,
          0., 0., 0., 0., 0., 192., 255., 192., 255., 0., 0., 0., 0., 0.,
          0., 0., 0., 215., 187., 0., 0., 0., 0. ]
      - [ 0., 0., 200., 27., 237., 110., 0., 0., 0., 0., 0., 0., 80.,
          83., 84., 0., 0., 0., 0., 0., 0., 0., 25., 62., 192., 255., 0.,
          0., 0., 0., 0., 0., 47., 45., 96., 9., 0., 0., 0., 0., 0., 0.,
          0., 0., 0., 0., 0., 0., 0., 0., 0., 0., 255., 0., 255., 128.,
          0., 0., 0., 0., 0., 0., 192., 255., 18., 86., 0., 0., 0., 0.,
          0., 0., 131., 52., 90., 136., 0., 0., 0., 0., 0., 0., 163.,
          94., 0., 0., 0., 0., 0., 0., 0., 0., 63., 0., 255., 0., 0., 0.,
          0., 0., 0., 0., 192., 255., 192., 255., 0., 0., 0., 0., 0., 0.,
          61., 21., 25., 4., 0., 0., 0., 0. ]
      - [ 243., 4., 0., 0., 37., 133., 0., 0., 0., 0., 57., 0., 255., 0.,
          41., 161., 0., 0., 0., 0., 224., 27., 192., 255., 172., 74.,
          0., 0., 0., 0., 89., 215., 152., 40., 0., 0., 0., 0., 0., 0.,
          253., 24., 0., 0., 0., 0., 0., 0., 0., 0., 30., 0., 255., 243.,
          255., 103., 0., 0., 0., 0., 0., 0., 181., 26., 170., 41., 0.,
          0., 0., 0., 0., 0., 114., 95., 178., 26., 0., 0., 0., 0., 0.,
          0., 0., 0., 195., 127., 0., 0., 0., 0., 0., 0., 255., 0., 60.,
          182., 0., 0., 0., 0., 0., 0., 192., 255., 254., 74., 0., 0.,
          0., 0., 0., 0., 0., 0., 26., 194., 0., 0., 0., 0. ]
      - [ 0., 0., 4., 166., 0., 0., 0., 0., 0., 0., 0., 0., 80., 72.,
          255., 31., 0., 0., 0., 0., 0., 0., 3., 55., 191., 55., 0., 0.,
          0., 0., 0., 0., 112., 40., 119., 39., 0., 0., 0., 0., 0., 0.,
          118., 14., 36., 40., 0., 0., 0., 0., 0., 0., 64., 0., 51., 23.,
          0., 0., 0., 0., 0., 0., 192., 255., 196., 80., 0., 0., 0., 0.,
          0., 0., 42., 153., 254., 161., 0., 0., 0., 0., 0., 0., 108.,
          99., 0., 0., 0., 0., 0., 0., 0., 0., 54., 220., 0., 38., 0.,
          0., 0., 0., 0., 0., 20., 54., 106., 64., 0., 0., 0., 0., 0.,
          0., 220., 44., 40., 4., 0., 0., 0., 0. ]
      - [ 243., 4., 146., 20., 156., 20., 0., 0., 0., 0., 81., 0., 57.,
          164., 58., 0., 0., 0., 0., 0., 192., 255., 163., 38., 192.,
          255., 0., 0., 0., 0., 89., 215., 193., 15., 149., 249., 0., 0.,
          0., 0., 253., 24., 0., 0., 0., 0., 0., 0., 0., 0., 30., 0.,
          255., 0., 255., 0., 0., 0., 0., 0., 0., 0., 192., 255., 192.,
          255., 0., 0., 0., 0., 0., 0., 125., 6., 138., 39., 0., 0., 0.,
          0., 0., 0., 53., 79., 144., 58., 0., 0., 0., 0., 0., 0., 39.,
          0., 48., 116., 0., 0., 0., 0., 0., 0., 192., 255., 63., 52.,
          0., 0., 0., 0., 0., 0., 64., 107., 190., 23., 0., 0., 0., 0. ]
      - [ 0., 0., 161., 151., 0., 0., 0., 0., 0., 0., 0., 0., 66., 0.,
          255., 0., 0., 0., 0., 0., 0., 0., 192., 255., 192., 255., 0.,
          0., 0., 0., 0., 0., 54., 34., 116., 30., 0., 0., 0., 0., 0.,
          0., 68., 105., 0., 0., 0., 0., 0., 0., 0., 0., 79., 32., 255.,
          0., 0., 0., 0., 0., 0., 0., 16., 75., 192., 255., 0., 0., 0.,
          0., 0., 0., 159., 224., 172., 223., 0., 0., 0., 0., 0., 0.,
          61., 138., 0., 0., 0., 0., 0., 0., 0., 0., 46., 0., 0., 94.,
          0., 0., 0., 0., 0., 0., 192., 255., 139., 77., 0., 0., 0., 0.,
          0., 0., 0., 0., 39., 205., 0., 0., 0., 0. ]
      - [ 0., 0., 40., 34., 0., 0., 0., 0., 0., 0., 0., 0., 62., 229.,
          255., 0., 0., 0., 0., 0., 0., 0., 28., 76., 192., 255., 0., 0.,
          0., 0., 0., 0., 245., 29., 98., 7., 0., 0., 0., 0., 0., 0.,
          198., 29., 181., 85., 0., 0., 0., 0., 0., 0., 91., 123., 84.,
          132., 0., 0., 0., 0., 0., 0., 26., 58., 175., 88., 0., 0., 0.,
          0., 0., 0., 124., 41., 2., 16., 0., 0., 0., 0., 0., 0., 166.,
          170., 0., 0., 0., 0., 0., 0., 0., 0., 70., 181., 0., 0., 0.,
          0., 0., 0., 0., 0., 122., 85., 192., 255., 0., 0., 0., 0., 0.,
          0., 0., 0., 116., 13., 0., 0., 0., 0. ]
      - [ 0., 0., 0., 0., 0., 0., 0., 0., 0., 0., 0., 0., 255., 0., 255.,
          162., 0., 0., 0., 0., 0., 0., 192., 255., 136., 55., 0., 0.,
          0., 0., 0., 0., 178., 12., 114., 46., 0., 0., 0., 0., 0., 0.,
          85., 94., 21., 158., 0., 0., 0., 0., 0., 0., 42., 0., 45.,
          207., 0., 0., 0., 0., 0., 0., 192., 255., 65., 65., 0., 0., 0.,
          0., 0., 0., 165., 194., 63., 223., 0., 0., 0., 0., 0., 0., 0.,
          0., 0., 0., 0., 0., 0., 0., 0., 0., 255., 0., 0., 0., 0., 0.,
          0., 0., 0., 0., 192., 255., 192., 255., 0., 0., 0., 0., 0., 0.,
          0., 0., 112., 122., 0., 0., 0., 0. ]
      - [ 0., 0., 154., 126., 151., 39., 0., 0., 0., 0., 0., 0., 74., 0.,
          72., 67., 0., 0., 0., 0., 0., 0., 192., 255., 215., 84., 0.,
          0., 0., 0., 0., 0., 219., 1., 239., 122., 0., 0., 0., 0., 0.,
          0., 0., 0., 128., 56., 0., 0., 0., 0., 0., 0., 255., 225., 72.,
          0., 0., 0., 0., 0., 0., 0., 152., 88., 192., 255., 0., 0., 0.,
          0., 0., 0., 96., 0., 222., 6., 0., 0., 0., 0., 0., 0., 0., 0.,
          0., 0., 0., 0., 0., 0., 0., 0., 255., 0., 0., 0., 0., 0., 0.,
          0., 0., 0., 192., 255., 192., 255., 0., 0., 0., 0., 0., 0.,
          212., 180., 217., 38., 0., 0., 0., 0. ]
      - [ 0., 0., 0., 0., 233., 170., 0., 0., 0., 0., 0., 0., 255., 220.,
          40., 0., 0., 0., 0., 0., 0., 0., 7., 49., 192., 255., 0., 0.,
          0., 0., 0., 0., 200., 37., 35., 242., 0., 0., 0., 0., 0., 0.,
          0., 0., 6., 150., 0., 0., 0., 0., 0., 0., 255., 105., 79., 0.,
          0., 0., 0., 0., 0., 0., 55., 36., 192., 255., 0., 0., 0., 0.,
          0., 0., 95., 49., 42., 61., 0., 0., 0., 0., 0., 0., 198., 143.,
          0., 0., 0., 0., 0., 0., 0., 0., 38., 5., 0., 169., 0., 0., 0.,
          0., 0., 0., 212., 71., 101., 54., 0., 0., 0., 0., 0., 0., 194.,
          187., 138., 25., 0., 0., 0., 0. ]
      - [ 3., 100., 0., 0., 145., 88., 0., 0., 0., 0., 81., 35., 255.,
          0., 77., 0., 0., 0., 0., 0., 218., 41., 192., 255., 192., 255.,
          0., 0., 0., 0., 146., 241., 222., 37., 141., 27., 0., 0., 0.,
          0., 0., 0., 236., 19., 0., 0., 0., 0., 0., 0., 0., 0., 62., 0.,
          255., 8., 0., 0., 0., 0., 0., 0., 192., 255., 123., 75., 0.,
          0., 0., 0., 0., 0., 155., 0., 252., 1., 0., 0., 0., 0., 0., 0.,
          0., 0., 78., 7., 0., 0., 0., 0., 255., 191., 255., 0., 53., 0.,
          0., 0., 0., 0., 11., 46., 192., 255., 192., 255., 0., 0., 0.,
          0., 244., 36., 62., 137., 59., 221., 0., 0., 0., 0. ]
      - [ 0., 0., 47., 43., 10., 63., 0., 0., 0., 0., 0., 0., 35., 98.,
          68., 157., 0., 0., 0., 0., 0., 0., 5., 66., 153., 41., 0., 0.,
          0., 0., 0., 0., 254., 44., 220., 108., 0., 0., 0., 0., 0., 0.,
          0., 0., 0., 0., 0., 0., 0., 0., 0., 0., 255., 203., 255., 0.,
          0., 0., 0., 0., 0., 0., 108., 49., 192., 255., 0., 0., 0., 0.,
          0., 0., 197., 24., 212., 21., 0., 0., 0., 0., 0., 0., 42.,
          151., 0., 0., 0., 0., 0., 0., 0., 0., 65., 0., 0., 0., 0., 0.,
          0., 0., 0., 0., 192., 255., 192., 255., 0., 0., 0., 0., 0., 0.,
          225., 195., 60., 52., 0., 0., 0., 0. ]
      - [ 0., 0., 85., 151., 0., 0., 0., 0., 0., 0., 0., 0., 62., 0.,
          255., 0., 0., 0., 0., 0., 0., 0., 192., 255., 192., 255., 0.,
          0., 0., 0., 0., 0., 231., 46., 71., 1., 0., 0., 0., 0., 0., 0.,
          29., 176., 0., 0., 0., 0., 0., 0., 0., 0., 52., 184., 255., 0.,
          0., 0., 0., 0., 0., 0., 139., 50., 192., 255., 0., 0., 0., 0.,
          0., 0., 189., 181., 85., 38., 0., 0., 0., 0., 0., 0., 154.,
          110., 0., 0., 0., 0., 0., 0., 0., 0., 45., 0., 0., 0., 0., 0.,
          0., 0., 0., 0., 192., 255., 192., 255., 0., 0., 0., 0., 0., 0.,
          224., 176., 211., 32., 0., 0., 0., 0. ]
      - [ 0., 0., 0., 0., 0., 0., 0., 0., 0., 0., 0., 0., 255., 0., 255.,
          0., 0., 0., 0., 0., 0., 0., 192., 255., 192., 255., 0., 0., 0.,
          0., 0., 0., 3., 48., 28., 183., 0., 0., 0., 0., 0., 0., 154.,
          119., 0., 0., 0., 0., 0., 0., 0., 0., 89., 41., 255., 0., 0.,
          0., 0., 0., 0., 0., 202., 91., 192., 255., 0., 0., 0., 0., 0.,
          0., 13., 197., 239., 60., 0., 0., 0., 0., 0., 0., 21., 34., 0.,
          0., 0., 0., 0., 0., 0., 0., 45., 196., 0., 10., 0., 0., 0., 0.,
          0., 0., 51., 71., 168., 87., 0., 0., 0., 0., 0., 0., 9., 138.,
          166., 124., 0., 0., 0., 0. ]
      - [ 0., 0., 0., 0., 0., 0., 0., 0., 0., 0., 0., 0., 255., 18.,
          255., 0., 0., 0., 0., 0., 0., 0., 86., 52., 192., 255., 0., 0.,
          0., 0., 0., 0., 236., 38., 183., 28., 0., 0., 0., 0., 0., 0.,
          73., 29., 238., 85., 0., 0., 0., 0., 0., 0., 79., 245., 75.,
          0., 0., 0., 0., 0., 0., 0., 155., 36., 192., 255., 0., 0., 0.,
          0., 0., 0., 125., 14., 111., 228., 0., 0., 0., 0., 0., 0.,
          127., 158., 31., 53., 0., 0., 0., 0., 0., 0., 33., 0., 52., 0.,
          0., 0., 0., 0., 0., 0., 192., 255., 192., 255., 0., 0., 0., 0.,
          0., 0., 147., 246., 69., 206., 0., 0., 0., 0. ]
      - [ 0., 0., 0., 0., 0., 0., 0., 0., 0., 0., 0., 0., 255., 50.,
          255., 30., 0., 0., 0., 0., 0., 0., 120., 41., 43., 73., 0., 0.,
          0., 0., 0., 0., 149., 26., 74., 29., 0., 0., 0., 0., 0., 0.,
          48., 12., 0., 0., 0., 0., 0., 0., 0., 0., 29., 0., 255., 55.,
          0., 0., 0., 0., 0., 0., 192., 255., 173., 47., 0., 0., 0., 0.,
          0., 0., 166., 20., 56., 9., 0., 0., 0., 0., 0., 0., 0., 0.,
          232., 131., 0., 0., 0., 0., 0., 0., 255., 0., 81., 119., 0.,
          0., 0., 0., 0., 0., 192., 255., 25., 76., 0., 0., 0., 0., 0.,
          0., 142., 42., 243., 200., 0., 0., 0., 0. ]
      - [ 0., 0., 131., 142., 0., 0., 0., 0., 0., 0., 0., 254., 61., 69.,
          255., 0., 0., 0., 0., 0., 194., 66., 177., 65., 192., 255., 0.,
          0., 0., 0., 170., 69., 39., 203., 104., 189., 0., 0., 0., 0.,
          0., 0., 163., 121., 243., 4., 0., 0., 0., 0., 255., 48., 47.,
          252., 41., 0., 0., 0., 0., 0., 16., 48., 222., 57., 192., 255.,
          0., 0., 0., 0., 0., 0., 241., 7., 166., 225., 0., 0., 0., 0.,
          0., 0., 246., 79., 144., 58., 0., 0., 0., 0., 0., 0., 69.,
          126., 57., 0., 0., 0., 0., 0., 0., 0., 230., 45., 192., 255.,
          0., 0., 0., 0., 0., 0., 192., 47., 122., 9., 0., 0., 0., 0. ]
      - [ 0., 0., 175., 6., 0., 0., 0., 0., 0., 0., 0., 0., 90., 0.,
          255., 0., 0., 0., 0., 0., 0., 0., 192., 255., 192., 255., 0.,
          0., 0., 0., 0., 0., 185., 209., 209., 39., 0., 0., 0., 0., 0.,
          0., 136., 10., 0., 0., 0., 0., 0., 0., 0., 0., 35., 101., 255.,
          0., 0., 0., 0., 0., 0., 0., 50., 80., 192., 255., 0., 0., 0.,
          0., 0., 0., 153., 52., 42., 85., 0., 0., 0., 0., 0., 0., 0.,
          0., 0., 0., 0., 0., 0., 0., 0., 0., 255., 90., 0., 134., 0.,
          0., 0., 0., 0., 0., 122., 40., 219., 65., 0., 0., 0., 0., 0.,
          0., 0., 0., 122., 20., 0., 0., 0., 0. ]
      - [ 50., 129., 0., 0., 80., 138., 0., 0., 0., 0., 29., 0., 255.,
          224., 82., 246., 0., 0., 0., 0., 0., 0., 204., 45., 173., 36.,
          0., 0., 0., 0., 0., 0., 138., 3., 218., 52., 0., 0., 0., 0.,
          120., 9., 0., 0., 118., 144., 0., 0., 0., 0., 85., 0., 255.,
          0., 64., 207., 0., 0., 0., 0., 192., 255., 192., 255., 101.,
          46., 0., 0., 0., 0., 0., 0., 90., 221., 96., 251., 0., 0., 0.,
          0., 0., 0., 0., 0., 0., 0., 0., 0., 0., 0., 0., 0., 255., 0.,
          255., 0., 0., 0., 0., 0., 0., 0., 192., 255., 192., 255., 0.,
          0., 0., 0., 156., 250., 129., 21., 129., 12., 0., 0., 0., 0. ]
      - [ 0., 0., 197., 100., 80., 59., 0., 0., 0., 0., 0., 0., 83., 81.,
          68., 173., 0., 0., 0., 0., 0., 0., 234., 255., 219., 54., 0.,
          0., 0., 0., 0., 0., 117., 86., 228., 33., 0., 0., 0., 0., 0.,
          0., 0., 0., 0., 0., 0., 0., 0., 0., 0., 0., 255., 17., 255.,
          237., 0., 0., 0., 0., 0., 0., 134., 51., 41., 71., 0., 0., 0.,
          0., 0., 0., 141., 18., 106., 25., 0., 0., 0., 0., 0., 0., 101.,
          103., 0., 0., 0., 0., 0., 0., 0., 0., 86., 0., 0., 202., 0.,
          0., 0., 0., 0., 0., 192., 255., 124., 36., 0., 0., 0., 0., 0.,
          0., 113., 161., 97., 19., 0., 0., 0., 0. ]
      - [ 0., 0., 0., 0., 0., 0., 0., 0., 0., 0., 0., 0., 255., 0., 255.,
          0., 0., 0., 0., 0., 192., 255., 192., 255., 192., 255., 0., 0.,
          0., 0., 236., 90., 128., 49., 70., 12., 0., 0., 0., 0., 0., 0.,
          221., 115., 31., 127., 0., 0., 0., 0., 0., 0., 72., 0., 62.,
          0., 0., 0., 0., 0., 0., 0., 192., 255., 192., 255., 0., 0., 0.,
          0., 0., 0., 178., 187., 137., 5., 0., 0., 0., 0., 0., 0., 46.,
          98., 144., 58., 0., 0., 0., 0., 0., 0., 39., 39., 48., 119.,
          0., 0., 0., 0., 0., 0., 157., 47., 53., 31., 0., 0., 0., 0.,
          0., 0., 113., 148., 252., 232., 0., 0., 0., 0. ]
      - [ 243., 4., 0., 0., 0., 0., 0., 0., 0., 0., 39., 0., 255., 0.,
          255., 0., 0., 0., 0., 0., 192., 255., 192., 255., 192., 255.,
          0., 0., 0., 0., 152., 46., 174., 6., 215., 14., 0., 0., 0., 0.,
          130., 214., 68., 156., 0., 0., 0., 0., 0., 0., 30., 0., 91.,
          0., 255., 0., 0., 0., 0., 0., 0., 0., 192., 255., 192., 255.,
          0., 0., 0., 0., 0., 0., 250., 90., 98., 51., 0., 0., 0., 0.,
          0., 0., 0., 0., 0., 0., 0., 0., 0., 0., 0., 0., 255., 40.,
          255., 0., 0., 0., 0., 0., 192., 255., 48., 51., 192., 255., 0.,
          0., 0., 0., 0., 0., 0., 0., 200., 197., 0., 0., 0., 0. ]
      - [ 0., 0., 211., 10., 158., 107., 0., 0., 0., 0., 0., 0., 94., 0.,
          63., 0., 0., 0., 0., 0., 0., 0., 192., 255., 192., 255., 0.,
          0., 0., 0., 0., 0., 166., 22., 167., 223., 0., 0., 0., 0., 0.,
          0., 239., 51., 0., 0., 0., 0., 0., 0., 0., 0., 94., 233., 255.,
          2., 0., 0., 0., 0., 0., 0., 18., 64., 249., 32., 0., 0., 0.,
          0., 0., 0., 236., 164., 86., 172., 0., 0., 0., 0., 0., 0., 0.,
          0., 0., 0., 0., 0., 0., 0., 0., 0., 255., 0., 0., 0., 0., 0.,
          0., 0., 0., 0., 192., 255., 192., 255., 0., 0., 0., 0., 0., 0.,
          234., 15., 41., 2., 0., 0., 0., 0. ]
      - [ 0., 0., 0., 0., 166., 135., 0., 0., 0., 0., 255., 0., 255.,
          190., 30., 0., 0., 0., 0., 0., 192., 255., 17., 36., 0., 0.,
          0., 0., 0., 0., 0., 0., 198., 162., 0., 0., 0., 0., 0., 0., 0.,
          0., 111., 113., 0., 0., 0., 0., 0., 0., 255., 235., 55., 193.,
          255., 0., 0., 0., 0., 0., 89., 84., 240., 39., 192., 255., 0.,
          0., 0., 0., 0., 0., 94., 208., 74., 1., 0., 0., 0., 0., 0., 0.,
          0., 0., 0., 0., 0., 0., 0., 0., 0., 0., 255., 54., 0., 0., 0.,
          0., 0., 0., 0., 0., 227., 87., 192., 255., 0., 0., 0., 0., 0.,
          0., 195., 32., 188., 178., 0., 0., 0., 0. ]
      - [ 113., 141., 0., 0., 163., 8., 0., 0., 0., 0., 57., 7., 255.,
          0., 29., 0., 0., 0., 0., 0., 238., 27., 192., 255., 0., 0., 0.,
          0., 0., 0., 0., 0., 219., 22., 0., 0., 0., 0., 0., 0., 88.,
          77., 0., 0., 0., 0., 0., 0., 0., 0., 29., 0., 255., 54., 255.,
          0., 0., 0., 0., 0., 0., 0., 171., 37., 192., 255., 0., 0., 0.,
          0., 0., 0., 112., 36., 92., 37., 0., 0., 0., 0., 0., 0., 86.,
          177., 0., 0., 0., 0., 0., 0., 0., 0., 33., 67., 0., 242., 0.,
          0., 0., 0., 0., 0., 87., 59., 245., 53., 0., 0., 0., 0., 0.,
          0., 248., 47., 107., 13., 0., 0., 0., 0. ]
      - [ 0., 0., 0., 0., 115., 187., 0., 0., 0., 0., 0., 0., 255., 10.,
          28., 0., 0., 0., 0., 0., 0., 0., 147., 58., 0., 0., 0., 0., 0.,
          0., 0., 0., 253., 50., 0., 0., 0., 0., 0., 0., 0., 0., 145.,
          126., 236., 151., 0., 0., 0., 0., 0., 0., 43., 252., 72., 0.,
          0., 0., 0., 0., 0., 0., 128., 72., 192., 255., 0., 0., 0., 0.,
          0., 0., 251., 106., 229., 158., 0., 0., 0., 0., 0., 0., 90.,
          19., 0., 0., 0., 0., 0., 0., 0., 0., 29., 0., 0., 0., 0., 0.,
          0., 0., 0., 0., 192., 255., 192., 255., 0., 0., 0., 0., 0., 0.,
          179., 42., 11., 51., 0., 0., 0., 0. ]
      - [ 0., 0., 0., 0., 20., 49., 0., 0., 0., 0., 0., 0., 255., 0.,
          30., 0., 0., 0., 0., 0., 192., 255., 192., 255., 0., 0., 0.,
          0., 0., 0., 0., 0., 99., 233., 0., 0., 0., 0., 0., 0., 0., 0.,
          203., 140., 148., 121., 0., 0., 0., 0., 0., 0., 60., 4., 53.,
          24., 0., 0., 0., 0., 0., 0., 116., 55., 10., 91., 0., 0., 0.,
          0., 0., 0., 213., 233., 92., 59., 0., 0., 0., 0., 0., 0., 0.,
          0., 0., 0., 0., 0., 0., 0., 0., 0., 255., 53., 0., 0., 0., 0.,
          0., 0., 0., 0., 7., 36., 192., 255., 0., 0., 0., 0., 0., 0.,
          134., 226., 193., 42., 0., 0., 0., 0. ]
      - [ 0., 0., 0., 0., 19., 67., 0., 0., 0., 0., 0., 0., 255., 0.,
          77., 149., 0., 0., 0., 0., 0., 0., 192., 255., 45., 28., 0.,
          0., 0., 0., 0., 0., 161., 51., 0., 0., 0., 0., 0., 0., 0., 0.,
          96., 108., 0., 0., 0., 0., 0., 0., 0., 0., 90., 0., 255., 41.,
          0., 0., 0., 0., 0., 0., 192., 255., 142., 84., 0., 0., 0., 0.,
          0., 0., 98., 99., 221., 166., 0., 0., 0., 0., 0., 0., 0., 0.,
          0., 0., 0., 0., 0., 0., 0., 0., 255., 32., 0., 0., 0., 0., 0.,
          0., 0., 0., 91., 57., 192., 255., 0., 0., 0., 0., 0., 0., 144.,
          156., 38., 168., 0., 0., 0., 0. ]
      - [ 0., 0., 0., 0., 211., 211., 0., 0., 0., 0., 0., 0., 255., 154.,
          30., 0., 0., 0., 0., 0., 0., 0., 250., 87., 0., 0., 0., 0., 0.,
          0., 0., 0., 45., 12., 0., 0., 0., 0., 0., 0., 0., 0., 0., 0.,
          159., 67., 0., 0., 0., 0., 0., 0., 255., 5., 83., 176., 0., 0.,
          0., 0., 0., 0., 50., 55., 32., 32., 0., 0., 0., 0., 0., 0.,
          117., 123., 37., 50., 0., 0., 0., 0., 0., 0., 21., 82., 0., 0.,
          0., 0., 0., 0., 0., 0., 73., 212., 0., 126., 0., 0., 0., 0.,
          0., 0., 146., 60., 117., 93., 0., 0., 0., 0., 0., 0., 68.,
          155., 166., 193., 0., 0., 0., 0. ]
      - [ 0., 0., 0., 0., 225., 212., 0., 0., 0., 0., 0., 0., 255., 0.,
          29., 0., 0., 0., 0., 0., 0., 0., 192., 255., 0., 0., 0., 0.,
          0., 0., 0., 0., 202., 9., 0., 0., 0., 0., 0., 0., 0., 0., 148.,
          124., 253., 89., 0., 0., 0., 0., 255., 29., 85., 75., 82.,
          149., 0., 0., 0., 0., 164., 71., 197., 90., 161., 62., 0., 0.,
          0., 0., 161., 25., 195., 44., 133., 1., 0., 0., 0., 0., 0., 0.,
          22., 40., 0., 0., 0., 0., 0., 0., 0., 0., 79., 0., 0., 0., 0.,
          0., 0., 0., 0., 0., 192., 255., 192., 255., 0., 0., 0., 0., 0.,
          0., 167., 160., 248., 222., 0., 0., 0., 0. ]
      - [ 0., 0., 0., 0., 186., 68., 0., 0., 0., 0., 0., 0., 255., 210.,
          29., 0., 0., 0., 0., 0., 0., 0., 244., 55., 0., 0., 0., 0., 0.,
          0., 0., 0., 166., 117., 0., 0., 0., 0., 0., 0., 0., 0., 16.,
          61., 0., 0., 0., 0., 0., 0., 0., 0., 77., 0., 255., 242., 0.,
          0., 0., 0., 0., 0., 192., 255., 36., 41., 0., 0., 0., 0., 0.,
          0., 103., 178., 43., 20., 0., 0., 0., 0., 0., 0., 11., 5., 0.,
          0., 0., 0., 0., 0., 0., 0., 69., 0., 0., 0., 0., 0., 0., 0.,
          0., 0., 192., 255., 192., 255., 0., 0., 0., 0., 0., 0., 252.,
          147., 197., 73., 0., 0., 0., 0. ]
      - [ 0., 0., 44., 141., 122., 255., 0., 0., 0., 0., 0., 0., 57., 0.,
          29., 0., 0., 0., 0., 0., 0., 0., 192., 255., 0., 0., 0., 0.,
          0., 0., 0., 0., 212., 136., 0., 0., 0., 0., 0., 0., 0., 0., 0.,
          0., 0., 0., 0., 0., 0., 0., 0., 0., 255., 0., 255., 249., 0.,
          0., 0., 0., 0., 0., 192., 255., 29., 77., 0., 0., 0., 0., 0.,
          0., 158., 164., 192., 217., 0., 0., 0., 0., 0., 0., 0., 0., 0.,
          0., 0., 0., 0., 0., 0., 0., 255., 162., 0., 80., 0., 0., 0.,
          0., 0., 0., 146., 39., 106., 89., 0., 0., 0., 0., 0., 0., 206.,
          34., 68., 247., 0., 0., 0., 0. ]
      - [ 243., 4., 197., 63., 143., 197., 0., 0., 0., 0., 81., 35., 94.,
          225., 30., 0., 0., 0., 0., 0., 137., 64., 33., 46., 0., 0., 0.,
          0., 0., 0., 236., 90., 23., 85., 0., 0., 0., 0., 0., 0., 0.,
          0., 74., 121., 171., 13., 0., 0., 0., 0., 0., 0., 76., 1., 71.,
          72., 0., 0., 0., 0., 0., 0., 214., 43., 107., 66., 0., 0., 0.,
          0., 0., 0., 86., 218., 175., 175., 0., 0., 0., 0., 0., 0., 0.,
          0., 0., 0., 0., 0., 0., 0., 0., 0., 255., 0., 0., 6., 0., 0.,
          0., 0., 0., 0., 192., 255., 198., 73., 0., 0., 0., 0., 0., 0.,
          41., 25., 18., 10., 0., 0., 0., 0. ]
      - [ 0., 0., 223., 160., 174., 125., 0., 0., 0., 0., 0., 0., 39.,
          0., 29., 0., 0., 0., 0., 0., 0., 0., 192., 255., 0., 0., 0.,
          0., 0., 0., 0., 0., 242., 147., 0., 0., 0., 0., 0., 0., 0., 0.,
          0., 0., 132., 74., 0., 0., 0., 0., 255., 0., 255., 0., 82., 0.,
          0., 0., 0., 0., 192., 255., 192., 255., 192., 255., 0., 0., 0.,
          0., 0., 0., 138., 239., 36., 82., 0., 0., 0., 0., 0., 0., 35.,
          60., 0., 0., 0., 0., 0., 0., 0., 0., 35., 0., 0., 0., 0., 0.,
          0., 0., 0., 0., 192., 255., 192., 255., 0., 0., 0., 0., 0., 0.,
          198., 172., 234., 1., 0., 0., 0., 0. ]
      - [ 0., 0., 3., 23., 33., 222., 0., 0., 0., 0., 0., 0., 43., 28.,
          30., 0., 0., 0., 0., 0., 0., 0., 59., 35., 0., 0., 0., 0., 0.,
          0., 0., 0., 61., 20., 0., 0., 0., 0., 0., 0., 0., 0., 0., 0.,
          0., 0., 0., 0., 0., 0., 0., 0., 255., 65., 255., 59., 0., 0.,
          0., 0., 0., 0., 27., 72., 35., 60., 0., 0., 0., 0., 0., 0.,
          10., 146., 28., 228., 0., 0., 0., 0., 0., 0., 1., 173., 0., 0.,
          0., 0., 0., 0., 0., 0., 84., 1., 0., 94., 0., 0., 0., 0., 0.,
          0., 95., 33., 11., 64., 0., 0., 0., 0., 0., 0., 199., 90.,
          146., 10., 0., 0., 0., 0. ]
      - [ 0., 0., 0., 0., 200., 170., 0., 0., 0., 0., 0., 0., 255., 14.,
          29., 0., 0., 0., 0., 0., 192., 255., 235., 49., 0., 0., 0., 0.,
          0., 0., 0., 0., 168., 1., 0., 0., 0., 0., 0., 0., 0., 0., 0.,
          0., 61., 36., 0., 0., 0., 0., 0., 0., 255., 0., 90., 164., 0.,
          0., 0., 0., 0., 0., 192., 255., 183., 43., 0., 0., 0., 0., 97.,
          227., 214., 152., 32., 14., 0., 0., 0., 0., 66., 180., 48.,
          134., 0., 0., 0., 0., 0., 0., 59., 223., 79., 89., 0., 0., 0.,
          0., 0., 0., 27., 28., 227., 75., 221., 127., 0., 0., 0., 0.,
          0., 0., 237., 48., 61., 3., 0., 0., 0., 0. ]
      - [ 243., 4., 0., 0., 73., 50., 0., 0., 0., 0., 81., 0., 255.,
          182., 29., 0., 0., 0., 0., 0., 192., 255., 163., 79., 0., 0.,
          0., 0., 0., 0., 0., 0., 13., 249., 0., 0., 0., 0., 0., 0., 0.,
          0., 168., 93., 56., 77., 0., 0., 0., 0., 0., 190., 61., 152.,
          74., 224., 0., 0., 0., 0., 148., 36., 132., 71., 22., 66., 0.,
          0., 0., 0., 0., 0., 115., 11., 95., 31., 0., 0., 0., 0., 0.,
          0., 14., 27., 0., 0., 0., 0., 0., 0., 0., 0., 51., 0., 0., 0.,
          0., 0., 0., 0., 0., 0., 192., 255., 192., 255., 0., 0., 0., 0.,
          0., 0., 79., 20., 52., 26., 0., 0., 0., 0. ]
      - [ 0., 0., 0., 0., 171., 177., 0., 0., 0., 0., 0., 0., 255., 225.,
          30., 0., 0., 0., 0., 0., 192., 255., 114., 51., 0., 0., 0., 0.,
          0., 0., 236., 90., 214., 34., 0., 0., 0., 0., 0., 0., 0., 0.,
          0., 0., 7., 70., 0., 0., 0., 0., 0., 0., 255., 26., 83., 0.,
          0., 0., 0., 0., 0., 0., 221., 89., 192., 255., 0., 0., 0., 0.,
          0., 0., 202., 47., 217., 50., 0., 0., 0., 0., 0., 0., 0., 0.,
          0., 0., 0., 0., 0., 0., 0., 0., 255., 97., 0., 121., 0., 0.,
          0., 0., 0., 0., 119., 68., 62., 39., 0., 0., 0., 0., 0., 0.,
          251., 40., 75., 46., 0., 0., 0., 0. ]
      - [ 0., 0., 167., 113., 47., 219., 0., 0., 0., 0., 0., 0., 46., 0.,
          30., 0., 0., 0., 0., 0., 0., 0., 192., 255., 0., 0., 0., 0.,
          0., 0., 0., 0., 78., 177., 0., 0., 0., 0., 0., 0., 0., 0., 0.,
          0., 156., 128., 0., 0., 0., 0., 0., 0., 255., 1., 68., 61., 0.,
          0., 0., 0., 0., 0., 48., 54., 225., 60., 0., 0., 0., 0., 0.,
          0., 220., 232., 79., 104., 0., 0., 0., 0., 0., 0., 130., 42.,
          0., 0., 0., 0., 0., 0., 0., 0., 33., 0., 0., 95., 0., 0., 0.,
          0., 0., 0., 192., 255., 192., 33., 0., 0., 0., 0., 0., 0.,
          199., 184., 127., 134., 0., 0., 0., 0. ]
      - [ 0., 0., 0., 0., 248., 112., 0., 0., 0., 0., 0., 0., 255., 0.,
          29., 0., 0., 0., 0., 0., 0., 0., 192., 255., 0., 0., 0., 0.,
          0., 0., 89., 215., 77., 204., 0., 0., 0., 0., 0., 0., 253.,
          24., 242., 105., 144., 107., 0., 0., 0., 0., 30., 0., 87., 0.,
          47., 99., 0., 0., 0., 0., 0., 0., 192., 255., 136., 85., 0.,
          0., 0., 0., 0., 0., 111., 15., 158., 1., 0., 0., 0., 0., 0.,
          0., 0., 0., 0., 0., 0., 0., 0., 0., 0., 0., 255., 145., 0., 0.,
          0., 0., 0., 0., 0., 0., 152., 66., 0., 75., 0., 0., 0., 0., 0.,
          0., 184., 244., 13., 225., 0., 0., 0., 0. ]
      - [ 0., 0., 0., 0., 238., 122., 0., 0., 0., 0., 0., 207., 255., 0.,
          30., 0., 0., 0., 0., 0., 243., 55., 192., 255., 0., 0., 0., 0.,
          0., 0., 0., 0., 173., 17., 0., 0., 0., 0., 0., 0., 243., 4.,
          41., 172., 170., 169., 0., 0., 0., 0., 83., 171., 76., 82.,
          67., 110., 0., 0., 0., 0., 5., 80., 83., 36., 80., 66., 0., 0.,
          0., 0., 0., 0., 169., 22., 45., 249., 0., 0., 0., 0., 155.,
          92., 0., 0., 0., 0., 0., 0., 0., 0., 73., 69., 255., 123., 0.,
          0., 0., 0., 0., 0., 44., 28., 147., 80., 192., 255., 0., 0.,
          0., 0., 0., 0., 54., 196., 24., 181., 0., 0., 0., 0. ]
      - [ 0., 0., 63., 11., 22., 134., 0., 0., 0., 0., 255., 194., 88.,
          0., 30., 0., 0., 0., 0., 0., 51., 53., 192., 255., 0., 0., 0.,
          0., 0., 0., 122., 147., 109., 40., 0., 0., 0., 0., 0., 0.,
          126., 67., 0., 0., 85., 32., 0., 0., 0., 0., 30., 0., 255., 0.,
          80., 82., 0., 0., 0., 0., 192., 255., 192., 255., 37., 33., 0.,
          0., 0., 0., 0., 0., 16., 211., 182., 16., 0., 0., 0., 0., 0.,
          0., 0., 0., 0., 0., 0., 0., 0., 0., 0., 0., 255., 76., 0., 47.,
          0., 0., 0., 0., 0., 0., 83., 49., 8., 91., 0., 0., 0., 0., 0.,
          0., 137., 195., 30., 217., 0., 0., 0., 0. ]
      - [ 0., 0., 59., 92., 147., 61., 0., 0., 0., 0., 0., 0., 52., 163.,
          29., 0., 0., 0., 0., 0., 0., 0., 132., 88., 0., 0., 0., 0., 0.,
          0., 0., 0., 244., 39., 0., 0., 0., 0., 0., 0., 0., 0., 178.,
          172., 41., 76., 0., 0., 0., 0., 0., 0., 70., 0., 46., 64., 0.,
          0., 0., 0., 192., 255., 235., 94., 165., 61., 0., 0., 0., 0.,
          167., 128., 223., 173., 6., 44., 0., 0., 0., 0., 0., 0., 197.,
          10., 0., 0., 0., 0., 0., 0., 0., 0., 84., 152., 0., 0., 0., 0.,
          0., 0., 0., 0., 44., 88., 254., 127., 0., 0., 0., 0., 0., 0.,
          203., 15., 253., 30., 0., 0., 0., 0. ]
      - [ 0., 0., 0., 0., 184., 160., 0., 0., 0., 0., 255., 253., 255.,
          207., 29., 0., 0., 0., 0., 0., 81., 75., 71., 48., 0., 0., 0.,
          0., 0., 0., 122., 147., 255., 174., 0., 0., 0., 0., 0., 0.,
          235., 15., 0., 0., 239., 128., 0., 0., 0., 0., 91., 0., 255.,
          141., 40., 167., 0., 0., 0., 0., 192., 255., 234., 52., 51.,
          65., 0., 0., 0., 0., 83., 132., 29., 237., 177., 45., 0., 0.,
          0., 0., 25., 69., 0., 0., 0., 0., 0., 0., 0., 0., 30., 0.,
          255., 0., 0., 0., 0., 0., 0., 0., 192., 255., 192., 255., 192.,
          255., 0., 0., 0., 0., 0., 0., 191., 209., 74., 13., 0., 0., 0.,
          0. ]
      - [ 0., 0., 0., 0., 72., 29., 0., 0., 0., 0., 0., 0., 255., 55.,
          29., 0., 0., 0., 0., 0., 192., 255., 59., 43., 0., 0., 0., 0.,
          0., 0., 236., 90., 8., 171., 0., 0., 0., 0., 0., 0., 0., 0.,
          0., 0., 59., 119., 0., 0., 0., 0., 0., 0., 255., 251., 74., 0.,
          0., 0., 0., 0., 0., 0., 73., 39., 192., 255., 0., 0., 0., 0.,
          0., 0., 253., 248., 36., 232., 0., 0., 0., 0., 0., 0., 1., 23.,
          0., 0., 0., 0., 0., 0., 0., 0., 33., 0., 0., 0., 0., 0., 0.,
          0., 0., 0., 192., 255., 192., 255., 0., 0., 0., 0., 0., 0.,
          98., 79., 152., 19., 0., 0., 0., 0. ]
      - [ 0., 0., 0., 0., 232., 188., 0., 0., 0., 0., 0., 0., 255., 189.,
          29., 0., 0., 0., 0., 0., 0., 0., 26., 63., 0., 0., 0., 0., 0.,
          0., 0., 0., 115., 0., 0., 0., 0., 0., 0., 0., 0., 0., 220.,
          85., 0., 0., 0., 0., 0., 0., 0., 54., 61., 0., 255., 0., 0.,
          0., 0., 0., 39., 80., 192., 255., 192., 255., 0., 0., 0., 0.,
          0., 0., 125., 124., 122., 80., 0., 0., 0., 0., 0., 0., 0., 0.,
          0., 0., 0., 0., 0., 0., 0., 0., 255., 0., 0., 0., 0., 0., 0.,
          0., 0., 0., 192., 255., 192., 255., 0., 0., 0., 0., 0., 0.,
          111., 239., 44., 188., 0., 0., 0., 0. ]
      - [ 0., 0., 154., 30., 53., 17., 0., 0., 0., 0., 255., 0., 57.,
          191., 29., 0., 0., 0., 0., 0., 192., 255., 177., 40., 0., 0.,
          0., 0., 0., 0., 4., 191., 55., 33., 0., 0., 0., 0., 0., 0.,
          217., 107., 0., 0., 30., 64., 0., 0., 0., 0., 81., 0., 255.,
          0., 38., 0., 0., 0., 0., 0., 192., 255., 192., 255., 192.,
          255., 0., 0., 0., 0., 0., 0., 26., 47., 64., 48., 0., 0., 0.,
          0., 0., 0., 8., 19., 0., 0., 0., 0., 0., 0., 0., 0., 76., 118.,
          0., 183., 0., 0., 0., 0., 0., 0., 128., 43., 236., 39., 0., 0.,
          0., 0., 92., 26., 64., 54., 136., 209., 0., 0., 0., 0. ]
      - [ 0., 0., 0., 0., 68., 110., 0., 0., 0., 0., 0., 0., 255., 204.,
          29., 0., 0., 0., 0., 0., 0., 0., 25., 95., 0., 0., 0., 0., 0.,
          0., 0., 0., 192., 30., 0., 0., 0., 0., 0., 0., 0., 0., 81.,
          179., 0., 0., 0., 0., 0., 0., 255., 203., 73., 32., 255., 0.,
          0., 0., 0., 0., 28., 28., 9., 49., 192., 255., 0., 0., 0., 0.,
          0., 0., 199., 17., 252., 17., 0., 0., 0., 0., 0., 0., 240.,
          29., 0., 0., 0., 0., 0., 0., 0., 0., 89., 0., 0., 227., 0., 0.,
          0., 0., 0., 0., 192., 255., 150., 55., 0., 0., 0., 0., 0., 0.,
          43., 41., 143., 35., 0., 0., 0., 0. ]
      - [ 0., 0., 0., 0., 166., 85., 0., 0., 0., 0., 0., 0., 255., 67.,
          29., 0., 0., 0., 0., 0., 0., 0., 176., 93., 0., 0., 0., 0., 0.,
          0., 0., 0., 191., 37., 0., 0., 0., 0., 0., 0., 253., 24., 101.,
          112., 33., 104., 0., 0., 0., 0., 30., 0., 52., 0., 62., 0., 0.,
          0., 0., 0., 192., 255., 192., 255., 192., 255., 0., 0., 0., 0.,
          161., 25., 37., 156., 36., 191., 0., 0., 0., 0., 197., 92., 0.,
          0., 0., 0., 0., 0., 0., 0., 33., 0., 255., 0., 0., 0., 0., 0.,
          0., 0., 192., 255., 192., 255., 192., 255., 0., 0., 0., 0.,
          15., 195., 43., 184., 65., 103., 0., 0., 0., 0. ]
      - [ 0., 0., 197., 13., 0., 0., 0., 0., 0., 0., 0., 0., 93., 59.,
          255., 189., 0., 0., 0., 0., 0., 0., 255., 70., 15., 28., 0.,
          0., 0., 0., 0., 0., 202., 40., 0., 0., 0., 0., 0., 0., 0., 0.,
          154., 167., 0., 0., 0., 0., 0., 0., 0., 0., 55., 42., 255., 2.,
          0., 0., 0., 0., 0., 0., 168., 63., 200., 39., 0., 0., 0., 0.,
          0., 0., 238., 250., 109., 208., 0., 0., 0., 0., 0., 0., 0., 0.,
          0., 0., 0., 0., 0., 0., 0., 0., 255., 0., 0., 38., 0., 0., 0.,
          0., 0., 0., 192., 255., 106., 41., 0., 0., 0., 0., 244., 36.,
          143., 54., 9., 85., 0., 0., 0., 0. ]
      - [ 0., 0., 71., 162., 33., 159., 0., 0., 0., 0., 255., 66., 54.,
          88., 30., 0., 0., 0., 0., 0., 50., 63., 12., 35., 0., 0., 0.,
          0., 0., 0., 170., 69., 14., 28., 0., 0., 0., 0., 0., 0., 106.,
          17., 46., 155., 77., 77., 0., 0., 0., 0., 30., 0., 75., 0.,
          76., 0., 0., 0., 0., 0., 0., 0., 192., 255., 192., 255., 0.,
          0., 0., 0., 0., 0., 143., 57., 0., 0., 0., 0., 0., 0., 0., 0.,
          186., 148., 0., 0., 0., 0., 0., 0., 0., 0., 48., 0., 0., 188.,
          0., 0., 0., 0., 0., 0., 192., 255., 168., 72., 0., 0., 0., 0.,
          0., 0., 110., 221., 20., 250., 0., 0., 0., 0. ]
      - [ 0., 0., 25., 126., 154., 94., 0., 0., 0., 0., 0., 0., 42.,
          137., 30., 0., 0., 0., 0., 0., 0., 0., 8., 33., 0., 0., 0., 0.,
          0., 0., 0., 0., 115., 39., 0., 0., 0., 0., 0., 0., 0., 0., 34.,
          184., 0., 0., 0., 0., 0., 0., 0., 0., 86., 0., 255., 147., 0.,
          0., 0., 0., 192., 255., 192., 255., 139., 32., 0., 0., 0., 0.,
          167., 128., 49., 36., 239., 255., 0., 0., 0., 0., 155., 92.,
          0., 0., 0., 0., 0., 0., 0., 0., 49., 0., 255., 0., 0., 0., 0.,
          0., 0., 0., 192., 255., 192., 255., 192., 255., 0., 0., 0., 0.,
          0., 0., 191., 38., 119., 188., 0., 0., 0., 0. ]
      - [ 0., 0., 0., 0., 40., 151., 0., 0., 0., 0., 0., 0., 255., 0.,
          29., 0., 0., 0., 0., 0., 0., 0., 192., 255., 0., 0., 0., 0.,
          0., 0., 0., 0., 104., 176., 0., 0., 0., 0., 0., 0., 0., 0.,
          186., 156., 87., 173., 0., 0., 0., 0., 0., 0., 67., 197., 53.,
          19., 0., 0., 0., 0., 0., 0., 128., 59., 87., 46., 0., 0., 0.,
          0., 0., 0., 71., 136., 81., 242., 0., 0., 0., 0., 0., 0., 0.,
          0., 0., 0., 0., 0., 0., 0., 0., 0., 255., 253., 0., 0., 0., 0.,
          0., 0., 0., 0., 125., 79., 192., 255., 0., 0., 0., 0., 0., 0.,
          143., 222., 71., 1., 0., 0., 0., 0. ]
      - [ 0., 0., 0., 0., 127., 178., 0., 0., 0., 0., 0., 0., 255., 0.,
          30., 0., 0., 0., 0., 0., 0., 0., 192., 255., 0., 0., 0., 0.,
          0., 0., 0., 0., 241., 88., 0., 0., 0., 0., 0., 0., 0., 0., 0.,
          0., 0., 0., 0., 0., 0., 0., 0., 0., 255., 147., 255., 0., 0.,
          0., 0., 0., 0., 0., 44., 35., 192., 255., 0., 0., 0., 0., 0.,
          0., 233., 16., 111., 229., 0., 0., 0., 0., 0., 0., 157., 37.,
          0., 0., 0., 0., 0., 0., 0., 0., 67., 0., 0., 146., 0., 0., 0.,
          0., 192., 255., 192., 255., 149., 51., 0., 0., 0., 0., 0., 0.,
          176., 206., 28., 39., 0., 0., 0., 0. ]
      - [ 0., 0., 0., 0., 59., 97., 0., 0., 0., 0., 0., 0., 255., 42.,
          29., 0., 0., 0., 0., 0., 0., 0., 254., 62., 0., 0., 0., 0., 0.,
          0., 0., 0., 207., 140., 0., 0., 0., 0., 0., 0., 0., 0., 0., 0.,
          15., 162., 0., 0., 0., 0., 0., 0., 255., 131., 61., 0., 0., 0.,
          0., 0., 0., 0., 167., 78., 192., 255., 0., 0., 0., 0., 0., 0.,
          7., 36., 196., 16., 0., 0., 0., 0., 0., 0., 0., 0., 0., 0., 0.,
          0., 0., 0., 0., 0., 255., 0., 0., 25., 0., 0., 0., 0., 0., 0.,
          192., 255., 99., 81., 0., 0., 0., 0., 0., 0., 127., 16., 32.,
          31., 0., 0., 0., 0. ]
      - [ 0., 0., 122., 87., 6., 217., 0., 0., 0., 0., 0., 0., 93., 0.,
          29., 0., 0., 0., 0., 0., 0., 0., 192., 255., 0., 0., 0., 0.,
          0., 0., 0., 0., 50., 238., 0., 0., 0., 0., 0., 0., 0., 0.,
          151., 6., 0., 0., 0., 0., 0., 0., 0., 0., 49., 0., 255., 4.,
          0., 0., 0., 0., 0., 0., 192., 255., 90., 72., 0., 0., 0., 0.,
          63., 13., 79., 244., 250., 34., 0., 0., 0., 0., 209., 41., 0.,
          0., 0., 0., 0., 0., 0., 0., 69., 0., 255., 0., 0., 106., 0.,
          0., 0., 0., 192., 255., 192., 255., 177., 38., 0., 0., 0., 0.,
          0., 0., 180., 209., 155., 19., 0., 0., 0., 0. ]
      - [ 0., 0., 0., 0., 28., 117., 0., 0., 0., 0., 0., 0., 255., 20.,
          29., 0., 0., 0., 0., 0., 0., 0., 155., 61., 0., 0., 0., 0., 0.,
          0., 0., 0., 185., 49., 0., 0., 0., 0., 0., 0., 0., 0., 254.,
          178., 65., 91., 0., 0., 0., 0., 0., 0., 81., 0., 64., 76., 0.,
          0., 0., 0., 0., 0., 192., 255., 248., 43., 0., 0., 0., 0., 0.,
          0., 212., 4., 67., 187., 0., 0., 0., 0., 0., 0., 0., 0., 0.,
          0., 0., 0., 0., 0., 0., 0., 255., 137., 0., 115., 0., 0., 0.,
          0., 0., 0., 187., 70., 222., 49., 0., 0., 0., 0., 0., 0., 20.,
          45., 15., 18., 0., 0., 0., 0. ]
      - [ 0., 0., 53., 173., 252., 122., 0., 0., 0., 0., 0., 0., 86., 0.,
          29., 0., 0., 0., 0., 0., 0., 0., 192., 255., 0., 0., 0., 0.,
          0., 0., 0., 0., 250., 6., 0., 0., 0., 0., 0., 0., 0., 0., 145.,
          172., 110., 55., 0., 0., 0., 0., 0., 0., 61., 87., 56., 30.,
          0., 0., 0., 0., 0., 0., 199., 54., 224., 41., 0., 0., 0., 0.,
          0., 0., 237., 44., 68., 219., 0., 0., 0., 0., 0., 0., 0., 0.,
          0., 0., 0., 0., 0., 0., 0., 0., 255., 0., 0., 0., 0., 0., 0.,
          0., 0., 0., 192., 255., 192., 255., 0., 0., 0., 0., 0., 0.,
          116., 209., 247., 43., 0., 0., 0., 0. ]
      - [ 71., 141., 0., 0., 194., 245., 0., 0., 0., 0., 35., 228., 255.,
          1., 29., 0., 0., 0., 0., 0., 115., 54., 23., 74., 0., 0., 0.,
          0., 0., 0., 4., 191., 109., 220., 0., 0., 0., 0., 0., 0., 0.,
          0., 189., 9., 59., 111., 0., 0., 0., 0., 0., 0., 36., 0., 69.,
          247., 0., 0., 0., 0., 192., 255., 192., 255., 190., 41., 0.,
          0., 0., 0., 83., 132., 39., 237., 225., 107., 0., 0., 0., 0.,
          0., 0., 0., 0., 0., 0., 0., 0., 0., 0., 255., 0., 255., 158.,
          0., 0., 0., 0., 0., 0., 192., 255., 240., 50., 192., 255., 0.,
          0., 0., 0., 0., 0., 176., 52., 26., 6., 0., 0., 0., 0. ]
      - [ 0., 0., 109., 30., 224., 86., 0., 0., 0., 0., 0., 0., 56., 57.,
          29., 0., 0., 0., 0., 0., 0., 0., 81., 72., 0., 0., 0., 0., 0.,
          0., 0., 0., 68., 241., 0., 0., 0., 0., 0., 0., 0., 0., 0., 0.,
          145., 157., 0., 0., 0., 0., 0., 0., 255., 53., 84., 243., 0.,
          0., 0., 0., 0., 0., 35., 32., 76., 88., 0., 0., 0., 0., 0., 0.,
          109., 210., 144., 253., 0., 0., 0., 0., 0., 0., 0., 0., 0., 0.,
          0., 0., 0., 0., 0., 0., 255., 225., 0., 0., 0., 0., 0., 0., 0.,
          0., 152., 33., 192., 255., 0., 0., 0., 0., 0., 0., 136., 187.,
          106., 51., 0., 0., 0., 0. ]
      - [ 0., 0., 0., 0., 244., 43., 0., 0., 0., 0., 0., 0., 255., 0.,
          30., 0., 0., 0., 0., 0., 0., 0., 192., 255., 0., 0., 0., 0.,
          0., 0., 0., 0., 86., 225., 0., 0., 0., 0., 0., 0., 0., 0.,
          243., 163., 222., 9., 0., 0., 0., 0., 0., 0., 49., 0., 89.,
          57., 0., 0., 0., 0., 0., 0., 192., 255., 46., 76., 0., 0., 0.,
          0., 0., 0., 124., 237., 210., 36., 0., 0., 0., 0., 0., 0., 75.,
          124., 0., 0., 0., 0., 0., 0., 0., 0., 68., 43., 0., 243., 0.,
          0., 0., 0., 0., 0., 128., 55., 173., 66., 0., 0., 0., 0., 0.,
          0., 236., 11., 28., 10., 0., 0., 0., 0. ]
      - [ 0., 0., 0., 0., 248., 24., 0., 0., 0., 0., 0., 0., 255., 119.,
          29., 0., 0., 0., 0., 0., 0., 0., 110., 81., 0., 0., 0., 0., 0.,
          0., 0., 0., 123., 184., 0., 0., 0., 0., 0., 0., 0., 0., 0., 0.,
          0., 0., 0., 0., 0., 0., 0., 0., 255., 149., 255., 254., 0., 0.,
          0., 0., 0., 0., 9., 72., 169., 34., 0., 0., 0., 0., 0., 0.,
          26., 48., 169., 228., 0., 0., 0., 0., 0., 0., 162., 72., 0.,
          0., 0., 0., 0., 0., 0., 0., 34., 157., 0., 74., 0., 0., 0., 0.,
          0., 0., 220., 83., 160., 49., 0., 0., 0., 0., 0., 0., 64., 40.,
          133., 8., 0., 0., 0., 0. ]
      - [ 0., 0., 0., 0., 218., 56., 0., 0., 0., 0., 0., 0., 255., 78.,
          75., 69., 0., 0., 0., 0., 0., 0., 165., 57., 206., 27., 0., 0.,
          0., 0., 0., 0., 138., 236., 0., 0., 0., 0., 0., 0., 0., 0., 0.,
          0., 61., 163., 0., 0., 0., 0., 0., 0., 255., 0., 57., 4., 0.,
          0., 0., 0., 0., 0., 192., 255., 160., 81., 0., 0., 0., 0., 0.,
          0., 141., 233., 156., 234., 0., 0., 0., 0., 0., 0., 0., 0., 0.,
          0., 0., 0., 0., 0., 0., 0., 255., 0., 0., 152., 0., 0., 0., 0.,
          0., 0., 192., 255., 73., 47., 0., 0., 0., 0., 0., 0., 7., 172.,
          221., 82., 0., 0., 0., 0. ]
      - [ 0., 0., 0., 0., 40., 94., 0., 0., 0., 0., 0., 0., 255., 1.,
          29., 0., 0., 0., 0., 0., 0., 0., 223., 71., 0., 0., 0., 0., 0.,
          0., 0., 0., 69., 13., 0., 0., 0., 0., 0., 0., 0., 0., 0., 0.,
          73., 63., 0., 0., 0., 0., 0., 0., 255., 118., 72., 0., 0., 0.,
          0., 0., 192., 255., 44., 85., 192., 255., 0., 0., 0., 0., 167.,
          128., 69., 41., 70., 205., 0., 0., 0., 0., 155., 92., 0., 0.,
          0., 0., 0., 0., 0., 0., 49., 0., 255., 0., 0., 0., 0., 0., 0.,
          0., 192., 255., 192., 255., 192., 255., 0., 0., 0., 0., 15.,
          195., 83., 41., 196., 1., 0., 0., 0., 0. ]
      - [ 0., 0., 130., 121., 148., 63., 0., 0., 0., 0., 0., 0., 60., 0.,
          29., 0., 0., 0., 0., 0., 0., 0., 192., 255., 0., 0., 0., 0.,
          0., 0., 0., 0., 92., 153., 0., 0., 0., 0., 0., 0., 0., 0., 57.,
          53., 166., 143., 0., 0., 0., 0., 0., 0., 82., 0., 69., 0., 0.,
          0., 0., 0., 0., 0., 192., 255., 192., 255., 0., 0., 0., 0., 0.,
          0., 104., 2., 200., 41., 0., 0., 0., 0., 0., 0., 0., 0., 0.,
          0., 0., 0., 0., 0., 0., 0., 255., 8., 0., 0., 0., 0., 0., 0.,
          0., 0., 16., 60., 192., 255., 0., 0., 0., 0., 0., 0., 159.,
          48., 245., 187., 0., 0., 0., 0. ]
      - [ 0., 0., 145., 118., 45., 151., 0., 0., 0., 0., 0., 0., 78., 0.,
          30., 0., 0., 0., 0., 0., 0., 0., 192., 255., 0., 0., 0., 0.,
          0., 0., 0., 0., 152., 24., 0., 0., 0., 0., 0., 0., 0., 0., 0.,
          0., 0., 0., 0., 0., 0., 0., 0., 54., 255., 104., 255., 0., 0.,
          0., 0., 0., 39., 80., 164., 74., 192., 255., 0., 0., 0., 0.,
          0., 0., 164., 19., 83., 198., 0., 0., 0., 0., 0., 0., 159.,
          112., 0., 0., 0., 0., 0., 0., 0., 0., 49., 0., 0., 196., 0.,
          0., 0., 0., 0., 0., 192., 255., 145., 57., 0., 0., 0., 0., 0.,
          0., 206., 204., 249., 201., 0., 0., 0., 0. ]
      - [ 71., 141., 63., 20., 195., 188., 0., 0., 0., 0., 35., 12., 40.,
          146., 30., 0., 0., 0., 0., 0., 95., 79., 96., 40., 0., 0., 0.,
          0., 0., 0., 222., 177., 79., 31., 0., 0., 0., 0., 0., 0., 128.,
          209., 161., 93., 0., 0., 0., 0., 0., 0., 29., 0., 33., 156.,
          255., 106., 0., 0., 0., 0., 192., 255., 68., 37., 211., 62.,
          0., 0., 0., 0., 0., 0., 243., 14., 204., 111., 0., 0., 0., 0.,
          0., 0., 0., 0., 0., 0., 0., 0., 0., 0., 0., 0., 255., 235., 0.,
          0., 0., 0., 0., 0., 0., 0., 219., 43., 192., 255., 0., 0., 0.,
          0., 0., 0., 139., 37., 186., 192., 0., 0., 0., 0. ]
      - [ 0., 0., 230., 149., 0., 0., 0., 0., 0., 0., 0., 0., 43., 146.,
          255., 16., 0., 0., 0., 0., 192., 255., 163., 77., 1., 28., 0.,
          0., 0., 0., 0., 0., 106., 30., 0., 0., 0., 0., 0., 0., 0., 0.,
          0., 0., 119., 18., 0., 0., 0., 0., 0., 0., 255., 0., 40., 0.,
          0., 0., 0., 0., 0., 0., 192., 255., 192., 255., 0., 0., 0., 0.,
          0., 0., 171., 40., 172., 230., 0., 0., 0., 0., 0., 0., 0., 0.,
          0., 0., 0., 0., 0., 0., 255., 0., 255., 37., 0., 0., 0., 0.,
          0., 0., 192., 255., 7., 69., 192., 255., 0., 0., 0., 0., 0.,
          0., 107., 29., 224., 33., 0., 0., 0., 0. ]
      - [ 0., 0., 0., 0., 70., 75., 0., 0., 0., 0., 0., 0., 255., 0.,
          29., 0., 0., 0., 0., 0., 0., 0., 192., 255., 0., 0., 0., 0.,
          0., 0., 0., 0., 144., 236., 0., 0., 0., 0., 0., 0., 0., 0.,
          107., 10., 0., 0., 0., 0., 0., 0., 0., 0., 49., 0., 255., 242.,
          0., 0., 0., 0., 0., 0., 192., 255., 22., 94., 0., 0., 0., 0.,
          0., 0., 22., 44., 29., 13., 0., 0., 0., 0., 0., 0., 10., 24.,
          0., 0., 0., 0., 0., 0., 0., 0., 44., 85., 0., 61., 0., 0., 0.,
          0., 0., 0., 247., 51., 8., 51., 0., 0., 0., 0., 0., 0., 211.,
          243., 195., 218., 0., 0., 0., 0. ]
      - [ 0., 0., 0., 0., 0., 0., 0., 0., 0., 0., 0., 0., 255., 0., 255.,
          123., 0., 0., 0., 0., 0., 0., 192., 255., 3., 28., 0., 0., 0.,
          0., 0., 0., 0., 240., 0., 0., 0., 0., 0., 0., 0., 0., 0., 0.,
          60., 44., 0., 0., 0., 0., 0., 0., 255., 0., 38., 247., 0., 0.,
          0., 0., 0., 0., 192., 255., 47., 51., 0., 0., 0., 0., 0., 0.,
          175., 227., 9., 181., 0., 0., 0., 0., 102., 166., 60., 98., 0.,
          0., 0., 0., 0., 0., 71., 130., 81., 221., 0., 0., 0., 0., 0.,
          0., 6., 28., 153., 44., 192., 255., 0., 0., 0., 0., 0., 0.,
          17., 132., 209., 217., 0., 0., 0., 0. ]
      - [ 0., 0., 0., 0., 142., 14., 0., 0., 0., 0., 0., 120., 255.,
          204., 29., 0., 0., 0., 0., 0., 238., 86., 58., 62., 0., 0., 0.,
          0., 0., 0., 152., 46., 126., 169., 0., 0., 0., 0., 0., 0., 0.,
          0., 0., 0., 217., 162., 0., 0., 0., 0., 255., 90., 255., 0.,
          33., 0., 0., 0., 0., 0., 24., 28., 192., 255., 192., 255., 0.,
          0., 0., 0., 0., 0., 121., 209., 140., 160., 0., 0., 0., 0., 0.,
          0., 9., 81., 0., 0., 0., 0., 0., 0., 0., 0., 90., 0., 0., 0.,
          0., 0., 0., 0., 0., 0., 192., 255., 192., 255., 0., 0., 0., 0.,
          0., 0., 85., 251., 56., 32., 0., 0., 0., 0. ]
      - [ 0., 0., 189., 78., 137., 71., 0., 0., 0., 0., 0., 0., 83.,
          195., 29., 0., 0., 0., 0., 0., 0., 0., 5., 34., 0., 0., 0., 0.,
          0., 0., 0., 0., 103., 50., 0., 0., 0., 0., 0., 0., 0., 0., 62.,
          85., 255., 39., 0., 0., 0., 0., 0., 0., 41., 0., 93., 0., 0.,
          0., 0., 0., 192., 255., 192., 255., 192., 255., 0., 0., 0., 0.,
          167., 128., 63., 42., 146., 196., 0., 0., 0., 0., 155., 92.,
          0., 0., 0., 0., 0., 0., 0., 0., 49., 0., 255., 0., 0., 0., 0.,
          0., 0., 0., 192., 255., 192., 255., 192., 255., 0., 0., 0., 0.,
          0., 0., 62., 42., 127., 103., 0., 0., 0., 0. ]
      - [ 0., 0., 0., 0., 32., 181., 0., 0., 0., 0., 0., 0., 255., 15.,
          29., 0., 0., 0., 0., 0., 0., 0., 252., 36., 0., 0., 0., 0., 0.,
          0., 0., 0., 139., 48., 0., 0., 0., 0., 0., 0., 0., 0., 0., 0.,
          41., 20., 0., 0., 0., 0., 0., 0., 255., 98., 48., 0., 0., 0.,
          0., 0., 0., 0., 240., 46., 192., 255., 0., 0., 0., 0., 0., 0.,
          53., 22., 78., 21., 0., 0., 0., 0., 0., 0., 0., 0., 0., 0., 0.,
          0., 0., 0., 0., 0., 255., 188., 0., 0., 0., 0., 0., 0., 0., 0.,
          237., 77., 192., 255., 0., 0., 0., 0., 0., 0., 0., 0., 177.,
          7., 0., 0., 0., 0. ]
      - [ 0., 0., 0., 0., 187., 163., 0., 0., 0., 0., 0., 0., 255., 0.,
          29., 0., 0., 0., 0., 0., 0., 0., 192., 255., 0., 0., 0., 0.,
          0., 0., 0., 0., 207., 22., 0., 0., 0., 0., 0., 0., 0., 0., 0.,
          0., 116., 115., 0., 0., 0., 0., 0., 0., 255., 0., 83., 0., 0.,
          0., 0., 0., 0., 0., 192., 255., 192., 255., 0., 0., 0., 0., 0.,
          0., 35., 239., 8., 217., 0., 0., 0., 0., 0., 0., 0., 0., 0.,
          0., 0., 0., 0., 0., 0., 0., 255., 0., 0., 0., 0., 0., 0., 0.,
          0., 0., 192., 255., 192., 255., 0., 0., 0., 0., 0., 0., 83.,
          214., 1., 196., 0., 0., 0., 0. ]
      - [ 0., 0., 0., 0., 0., 0., 0., 0., 0., 0., 0., 0., 255., 248.,
          255., 220., 0., 0., 0., 0., 0., 0., 135., 45., 24., 28., 0.,
          0., 0., 0., 0., 0., 116., 49., 0., 0., 0., 0., 0., 0., 0., 0.,
          0., 0., 0., 0., 0., 0., 0., 0., 0., 0., 255., 0., 255., 167.,
          0., 0., 0., 0., 0., 0., 192., 255., 209., 72., 0., 0., 0., 0.,
          0., 0., 4., 234., 79., 191., 0., 0., 0., 0., 0., 0., 0., 0.,
          0., 0., 0., 0., 0., 0., 0., 0., 255., 0., 0., 126., 0., 0., 0.,
          0., 0., 0., 192., 255., 196., 55., 0., 0., 0., 0., 0., 0.,
          181., 170., 139., 191., 0., 0., 0., 0. ]
      - [ 0., 0., 0., 0., 138., 252., 0., 0., 0., 0., 0., 0., 255., 0.,
          30., 0., 0., 0., 0., 0., 0., 0., 192., 255., 0., 0., 0., 0.,
          0., 0., 0., 0., 208., 29., 0., 0., 0., 0., 0., 0., 0., 0., 0.,
          0., 218., 165., 0., 0., 0., 0., 0., 0., 255., 0., 75., 0., 0.,
          0., 0., 0., 0., 0., 192., 255., 192., 255., 0., 0., 0., 0., 0.,
          0., 210., 185., 234., 193., 0., 0., 0., 0., 0., 0., 0., 0., 0.,
          0., 0., 0., 0., 0., 0., 0., 255., 191., 0., 0., 0., 0., 0., 0.,
          0., 0., 216., 49., 192., 255., 0., 0., 0., 0., 0., 0., 83.,
          19., 116., 4., 0., 0., 0., 0. ]
      - [ 0., 0., 0., 0., 176., 109., 0., 0., 0., 0., 0., 0., 255., 108.,
          29., 0., 0., 0., 0., 0., 0., 0., 59., 42., 0., 0., 0., 0., 0.,
          0., 0., 0., 231., 6., 0., 0., 0., 0., 0., 0., 0., 0., 0., 0.,
          0., 0., 0., 0., 0., 0., 0., 0., 255., 0., 255., 103., 0., 0.,
          0., 0., 0., 0., 192., 255., 79., 39., 0., 0., 0., 0., 0., 0.,
          246., 45., 158., 15., 0., 0., 0., 0., 0., 0., 57., 104., 0.,
          0., 0., 0., 0., 0., 0., 0., 42., 111., 0., 0., 0., 0., 0., 0.,
          0., 0., 180., 46., 192., 255., 0., 0., 0., 0., 0., 0., 226.,
          24., 153., 92., 0., 0., 0., 0. ]
      - [ 0., 0., 0., 0., 18., 113., 0., 0., 0., 0., 0., 0., 255., 26.,
          29., 0., 0., 0., 0., 0., 192., 255., 157., 89., 0., 0., 0., 0.,
          0., 0., 122., 147., 208., 245., 0., 0., 0., 0., 0., 0., 0., 0.,
          0., 0., 87., 133., 0., 0., 0., 0., 255., 90., 255., 45., 39.,
          244., 0., 0., 0., 0., 24., 28., 130., 32., 16., 49., 0., 0.,
          0., 0., 0., 0., 35., 17., 223., 35., 0., 0., 0., 0., 0., 0.,
          74., 64., 0., 0., 0., 0., 0., 0., 0., 0., 33., 0., 0., 0., 0.,
          0., 0., 0., 0., 0., 192., 255., 192., 255., 0., 0., 0., 0., 0.,
          0., 13., 45., 235., 32., 0., 0., 0., 0. ]
      - [ 113., 141., 97., 63., 83., 229., 0., 0., 0., 0., 73., 155.,
          44., 50., 29., 0., 0., 0., 0., 0., 204., 76., 141., 37., 0.,
          0., 0., 0., 0., 0., 170., 69., 56., 6., 0., 0., 0., 0., 0., 0.,
          158., 150., 0., 0., 0., 0., 0., 0., 0., 0., 71., 214., 255.,
          0., 255., 57., 0., 0., 0., 0., 49., 28., 192., 255., 93., 51.,
          0., 0., 0., 0., 0., 0., 137., 222., 183., 136., 0., 0., 0., 0.,
          0., 0., 0., 0., 0., 0., 0., 0., 0., 0., 0., 0., 255., 121., 0.,
          0., 0., 0., 0., 0., 0., 0., 163., 39., 192., 255., 0., 0., 0.,
          0., 0., 0., 231., 30., 124., 7., 0., 0., 0., 0. ]
      - [ 0., 0., 162., 128., 219., 190., 0., 0., 0., 0., 0., 0., 61.,
          0., 30., 0., 0., 0., 0., 0., 0., 0., 192., 255., 0., 0., 0.,
          0., 0., 0., 0., 0., 215., 6., 0., 0., 0., 0., 0., 0., 0., 0.,
          4., 50., 0., 0., 0., 0., 0., 0., 0., 0., 34., 124., 255., 243.,
          0., 0., 0., 0., 0., 0., 198., 39., 2., 67., 0., 0., 0., 0., 0.,
          0., 189., 239., 85., 26., 0., 0., 0., 0., 0., 0., 106., 148.,
          0., 0., 0., 0., 0., 0., 255., 0., 85., 0., 0., 211., 0., 0.,
          0., 0., 192., 255., 192., 255., 135., 48., 0., 0., 0., 0., 0.,
          0., 23., 37., 5., 203., 0., 0., 0., 0. ]
      - [ 0., 0., 169., 91., 132., 54., 0., 0., 0., 0., 0., 32., 66.,
          39., 29., 0., 0., 0., 0., 0., 137., 64., 24., 94., 0., 0., 0.,
          0., 0., 0., 236., 90., 194., 48., 0., 0., 0., 0., 0., 0., 0.,
          0., 0., 0., 0., 0., 0., 0., 0., 0., 0., 0., 255., 0., 255.,
          116., 0., 0., 0., 0., 0., 0., 192., 255., 164., 51., 0., 0.,
          0., 0., 0., 0., 144., 19., 37., 29., 0., 0., 0., 0., 0., 0.,
          0., 0., 0., 0., 0., 0., 0., 0., 0., 0., 255., 0., 0., 0., 0.,
          0., 0., 0., 0., 0., 192., 255., 192., 255., 0., 0., 0., 0., 0.,
          0., 44., 29., 29., 246., 0., 0., 0., 0. ]
      - [ 0., 0., 247., 55., 56., 209., 0., 0., 0., 0., 0., 0., 41., 0.,
          29., 0., 0., 0., 0., 0., 0., 0., 192., 255., 0., 0., 0., 0.,
          0., 0., 0., 0., 12., 142., 0., 0., 0., 0., 0., 0., 0., 0., 0.,
          0., 0., 0., 0., 0., 0., 0., 0., 0., 255., 0., 255., 0., 0., 0.,
          0., 0., 0., 0., 192., 255., 192., 255., 0., 0., 0., 0., 0., 0.,
          169., 107., 108., 194., 0., 0., 0., 0., 0., 0., 70., 172., 0.,
          0., 0., 0., 0., 0., 0., 0., 87., 0., 0., 236., 0., 0., 0., 0.,
          0., 0., 192., 255., 201., 94., 0., 0., 0., 0., 116., 164.,
          188., 6., 55., 169., 0., 0., 0., 0. ]
      - [ 0., 0., 0., 0., 12., 125., 0., 0., 0., 0., 255., 94., 255.,
          243., 30., 0., 0., 0., 0., 0., 11., 28., 178., 57., 0., 0., 0.,
          0., 0., 0., 0., 0., 185., 147., 0., 0., 0., 0., 0., 0., 253.,
          24., 108., 181., 0., 0., 0., 0., 0., 0., 30., 0., 43., 0.,
          255., 0., 0., 0., 0., 0., 0., 0., 192., 255., 192., 255., 0.,
          0., 0., 0., 0., 0., 101., 8., 255., 27., 0., 0., 0., 0., 0.,
          0., 137., 184., 0., 0., 0., 0., 0., 0., 0., 0., 94., 0., 0.,
          0., 0., 0., 0., 0., 192., 255., 192., 255., 192., 255., 0., 0.,
          0., 0., 0., 0., 206., 59., 104., 45., 0., 0., 0., 0. ]
      - [ 0., 0., 216., 45., 242., 140., 0., 0., 0., 0., 0., 0., 67.,
          146., 30., 0., 0., 0., 0., 0., 0., 0., 39., 92., 0., 0., 0.,
          0., 0., 0., 0., 0., 198., 23., 0., 0., 0., 0., 0., 0., 0., 0.,
          0., 0., 0., 0., 0., 0., 0., 0., 0., 0., 255., 0., 255., 72.,
          0., 0., 0., 0., 0., 0., 192., 255., 66., 67., 0., 0., 0., 0.,
          0., 0., 189., 15., 194., 23., 0., 0., 0., 0., 0., 0., 0., 0.,
          0., 0., 0., 0., 0., 0., 0., 0., 255., 23., 0., 188., 0., 0.,
          0., 0., 0., 0., 55., 64., 40., 86., 0., 0., 0., 0., 0., 0.,
          205., 28., 47., 35., 0., 0., 0., 0. ]
      - [ 0., 0., 0., 0., 237., 159., 0., 0., 0., 0., 0., 0., 255., 0.,
          29., 0., 0., 0., 0., 0., 192., 255., 192., 255., 0., 0., 0.,
          0., 0., 0., 0., 0., 177., 38., 0., 0., 0., 0., 0., 0., 0., 0.,
          0., 0., 64., 39., 0., 0., 0., 0., 0., 0., 255., 141., 66., 0.,
          0., 0., 0., 0., 0., 0., 35., 40., 192., 255., 0., 0., 0., 0.,
          63., 13., 193., 36., 79., 46., 0., 0., 0., 0., 209., 41., 0.,
          0., 0., 0., 0., 0., 0., 0., 69., 0., 255., 0., 0., 0., 0., 0.,
          0., 0., 192., 255., 192., 255., 192., 255., 0., 0., 0., 0., 0.,
          0., 254., 43., 184., 23., 0., 0., 0., 0. ]
      - [ 0., 0., 0., 0., 109., 154., 0., 0., 0., 0., 0., 0., 255., 34.,
          29., 0., 0., 0., 0., 0., 0., 0., 229., 63., 0., 0., 0., 0., 0.,
          0., 0., 0., 167., 128., 0., 0., 0., 0., 0., 0., 158., 150.,
          200., 139., 0., 0., 0., 0., 0., 0., 61., 26., 47., 52., 255.,
          94., 0., 0., 0., 0., 228., 79., 14., 83., 119., 70., 0., 0.,
          0., 0., 198., 220., 127., 7., 123., 37., 0., 0., 0., 0., 0.,
          0., 0., 0., 0., 0., 0., 0., 0., 0., 0., 0., 255., 139., 0.,
          152., 0., 0., 0., 0., 0., 0., 226., 50., 73., 52., 0., 0., 0.,
          0., 0., 0., 89., 195., 91., 149., 0., 0., 0., 0. ]
      - [ 0., 0., 0., 0., 61., 55., 0., 0., 0., 0., 0., 0., 255., 0.,
          30., 0., 0., 0., 0., 0., 0., 0., 192., 255., 0., 0., 0., 0.,
          0., 0., 0., 0., 215., 36., 0., 0., 0., 0., 0., 0., 253., 24.,
          0., 0., 0., 0., 0., 0., 0., 0., 30., 0., 255., 0., 255., 0.,
          0., 0., 0., 0., 0., 0., 192., 255., 192., 255., 0., 0., 0., 0.,
          0., 0., 0., 0., 35., 204., 0., 0., 0., 0., 0., 0., 0., 0., 0.,
          0., 0., 0., 0., 0., 0., 0., 0., 0., 0., 0., 0., 0., 0., 0., 0.,
          0., 0., 0., 0., 0., 0., 0., 0., 0., 0., 0., 79., 232., 30.,
          255., 0., 0., 0., 0. ]
      - [ 0., 0., 29., 75., 139., 68., 0., 0., 0., 0., 0., 0., 62., 196.,
          30., 0., 0., 0., 0., 0., 0., 0., 184., 73., 0., 0., 0., 0., 0.,
          0., 0., 0., 181., 44., 0., 0., 0., 0., 0., 0., 0., 0., 0., 0.,
          0., 0., 0., 0., 0., 0., 0., 0., 255., 192., 255., 0., 0., 0.,
          0., 0., 0., 0., 213., 78., 192., 255., 0., 0., 0., 0., 0., 0.,
          76., 183., 247., 28., 0., 0., 0., 0., 0., 0., 147., 79., 0.,
          0., 0., 0., 0., 0., 0., 0., 29., 0., 0., 177., 0., 0., 0., 0.,
          0., 0., 192., 255., 123., 40., 0., 0., 0., 0., 0., 0., 66.,
          41., 128., 241., 0., 0., 0., 0. ]
      - [ 0., 0., 0., 0., 152., 6., 0., 0., 0., 0., 0., 207., 255., 0.,
          30., 0., 0., 0., 0., 0., 243., 55., 192., 255., 0., 0., 0., 0.,
          0., 0., 236., 90., 54., 188., 0., 0., 0., 0., 0., 0., 0., 0.,
          135., 76., 192., 122., 0., 0., 0., 0., 0., 0., 42., 111., 91.,
          199., 0., 0., 0., 0., 0., 0., 128., 73., 15., 53., 0., 0., 0.,
          0., 0., 0., 93., 37., 136., 153., 0., 0., 0., 0., 0., 0., 0.,
          0., 0., 0., 0., 0., 0., 0., 0., 0., 255., 30., 0., 0., 0., 0.,
          0., 0., 0., 0., 244., 127., 192., 255., 0., 0., 0., 0., 0., 0.,
          204., 81., 180., 19., 0., 0., 0., 0. ]
      - [ 0., 0., 0., 0., 203., 106., 0., 0., 0., 0., 0., 0., 255., 195.,
          30., 0., 0., 0., 0., 0., 192., 255., 56., 83., 0., 0., 0., 0.,
          0., 0., 0., 0., 103., 19., 0., 0., 0., 0., 0., 0., 0., 0., 0.,
          0., 0., 0., 0., 0., 0., 0., 0., 0., 255., 8., 255., 122., 0.,
          0., 0., 0., 0., 0., 245., 58., 69., 52., 0., 0., 0., 0., 0.,
          0., 230., 50., 210., 39., 0., 0., 0., 0., 0., 0., 236., 68.,
          0., 0., 0., 0., 0., 0., 0., 0., 85., 255., 0., 135., 0., 0.,
          0., 0., 0., 0., 126., 74., 189., 70., 0., 0., 0., 0., 0., 0.,
          131., 145., 55., 149., 0., 0., 0., 0. ]
      - [ 0., 0., 0., 0., 70., 241., 0., 0., 0., 0., 0., 0., 255., 0.,
          29., 0., 0., 0., 0., 0., 0., 0., 192., 255., 0., 0., 0., 0.,
          0., 0., 0., 0., 199., 30., 0., 0., 0., 0., 0., 0., 0., 0.,
          222., 67., 190., 80., 0., 0., 0., 0., 0., 0., 53., 0., 74.,
          204., 0., 0., 0., 0., 0., 0., 192., 255., 139., 40., 0., 0.,
          0., 0., 0., 0., 187., 111., 1., 199., 0., 0., 0., 0., 0., 0.,
          37., 224., 0., 0., 0., 0., 0., 0., 0., 0., 29., 0., 0., 0., 0.,
          0., 0., 0., 0., 0., 192., 255., 96., 76., 0., 0., 0., 0., 0.,
          0., 145., 44., 157., 246., 0., 0., 0., 0. ]
      - [ 0., 0., 53., 69., 175., 59., 0., 0., 0., 0., 0., 0., 38., 0.,
          29., 0., 0., 0., 0., 0., 0., 0., 192., 255., 0., 0., 0., 0.,
          0., 0., 0., 0., 41., 15., 0., 0., 0., 0., 0., 0., 0., 0., 0.,
          0., 0., 0., 0., 0., 0., 0., 0., 0., 255., 136., 255., 0., 0.,
          0., 0., 0., 0., 0., 154., 77., 192., 255., 0., 0., 0., 0., 0.,
          0., 74., 52., 187., 8., 0., 0., 0., 0., 0., 0., 73., 17., 0.,
          0., 0., 0., 0., 0., 0., 0., 43., 213., 0., 169., 0., 0., 0.,
          0., 0., 0., 28., 89., 88., 32., 0., 0., 0., 0., 0., 0., 221.,
          199., 208., 149., 0., 0., 0., 0. ]
      - [ 0., 0., 0., 0., 153., 188., 0., 0., 0., 0., 255., 0., 255.,
          55., 30., 0., 0., 0., 0., 0., 192., 255., 15., 84., 0., 0., 0.,
          0., 0., 0., 18., 215., 254., 31., 0., 0., 0., 0., 0., 0., 106.,
          17., 0., 0., 0., 0., 0., 0., 0., 0., 30., 0., 255., 0., 255.,
          223., 0., 0., 0., 0., 0., 0., 192., 255., 6., 61., 0., 0., 0.,
          0., 0., 0., 182., 17., 236., 42., 0., 0., 0., 0., 0., 0., 113.,
          166., 0., 0., 0., 0., 0., 0., 0., 0., 94., 0., 0., 0., 0., 0.,
          0., 0., 0., 0., 192., 255., 192., 255., 0., 0., 0., 0., 0., 0.,
          160., 24., 9., 9., 0., 0., 0., 0. ]
      - [ 0., 0., 0., 0., 114., 2., 0., 0., 0., 0., 0., 0., 255., 0.,
          29., 0., 0., 0., 0., 0., 0., 0., 192., 255., 0., 0., 0., 0.,
          0., 0., 0., 0., 0., 0., 0., 0., 0., 0., 0., 0., 0., 0., 60.,
          19., 0., 0., 0., 0., 0., 0., 0., 0., 69., 157., 255., 0., 0.,
          0., 0., 0., 0., 0., 254., 48., 192., 255., 0., 0., 0., 0., 0.,
          0., 7., 225., 97., 8., 0., 0., 0., 0., 0., 0., 107., 169., 0.,
          0., 0., 0., 0., 0., 0., 0., 66., 0., 0., 131., 0., 0., 0., 0.,
          0., 0., 192., 255., 163., 73., 0., 0., 0., 0., 0., 0., 9.,
          227., 140., 21., 0., 0., 0., 0. ]
   decision_functions:
      -
         sv_count: 142
         rho: 2.9022179536283615e-003
         alpha: [ 8.6560064800040204e-001, 8.1094360149457234e-001,
             8.9313978364250590e-001, 8.9782268927842745e-001,
             9.8398155516538988e-001, 8.8141383926667227e-001,
             9.2056060453014477e-001, 9.5758259014295855e-001,
             8.8191373612941570e-001, 9.2064224313765364e-001,
             1.0461995670467412e+000, 7.6324458360502856e-001,
             8.8485698089883358e-001, 1.0431735929641164e+000,
             7.8755489272954105e-001, 8.6169618987891217e-001,
             7.9007194186829943e-001, 9.1188951886214487e-001,
             7.2725050651784440e-001, 8.7308549815998249e-001,
             1.0132390358599779e+000, 9.0915734775288437e-001,
             8.6198847825556590e-001, 7.2528764960095160e-001,
             9.9346832180713185e-001, 6.2871321390627477e-001,
             9.8250651618340479e-001, 9.9356459862435276e-001,
             9.4618877937110946e-001, 1.0020951683637791e+000,
             7.6791214522345763e-001, 7.3124753038961010e-001,
             9.1458833823838059e-001, 7.8418675790014158e-001,
             9.9889499086000644e-001, 8.6022303534575584e-001,
             1.0433642757405517e+000, 8.5657595279074661e-001,
             8.3539194906934355e-001, 8.2008615582775402e-001,
             9.5682078797041215e-001, 9.0237659438395690e-001,
             8.8941658929010192e-001, 1.0055741524715440e+000,
             9.2630757877402403e-001, 7.7669940552753380e-001,
             1.0019337697827639e+000, 6.7883847349393711e-001,
             9.5124057518588911e-001, 8.9844943685769818e-001,
             1.0017092758887829e+000, 8.9614071162983444e-001,
             9.8560729598991592e-001, 7.2694828162524650e-001,
             8.6835461127671110e-001, 9.0266320763342012e-001,
             8.4621310615639411e-001, 9.5379955143669171e-001,
             9.9791882690153033e-001, 8.3926299280012950e-001,
             7.7749328301121168e-001, 8.0167687077871275e-001,
             8.9596214503064742e-001, 9.2747458352811019e-001,
             9.9243565711962478e-001, 6.1867157443845089e-001,
             9.9599975631697979e-001, 8.9514510082772369e-001,
             9.6841724731114287e-001, 9.8474694082629333e-001,
             8.6496048041974150e-001, -9.7137422038665744e-001,
             -8.9558726837776281e-001, -8.6985718567734183e-001,
             -8.8377620943111768e-001, -8.7241132923994669e-001,
             -7.7021606018689137e-001, -8.6438328422691868e-001,
             -7.9108993054129928e-001, -8.2108137917232238e-001,
             -9.4089887443148790e-001, -9.4099906884410300e-001,
             -8.8718050378564661e-001, -9.3475557527973174e-001,
             -9.4159764537873980e-001, -8.6977351935722580e-001,
             -8.2353084669689336e-001, -9.0179995981203664e-001,
             -9.4274806738158901e-001, -9.5600472696841909e-001,
             -9.5168410103294732e-001, -9.8502578740462732e-001,
             -9.3471009413007067e-001, -7.8943879247169091e-001,
             -9.7797336033898896e-001, -9.5113780992258778e-001,
             -8.9645679240408704e-001, -1.0295711178022775e+000,
             -9.5065147444625653e-001, -8.8987891819117582e-001,
             -7.7442478561783257e-001, -8.7880006516985687e-001,
             -7.2318973486092419e-001, -9.5591827972820842e-001,
             -8.2859666456421976e-001, -8.3749101027342066e-001,
             -9.8535109720446223e-001, -8.5519305811088364e-001,
             -9.1617597082114233e-001, -8.5834888778883123e-001,
             -9.4292322803526252e-001, -9.0021144656069396e-001,
             -8.4363745040059324e-001, -7.0863741767138710e-001,
             -9.6864261824377018e-001, -9.8965561183936457e-001,
             -9.0086432247759629e-001, -1.0075406696441012e+000,
             -9.1238832471964770e-001, -8.5496002121372938e-001,
             -7.8434983301901540e-001, -7.2071185107002422e-001,
             -1.0896150245590679e+000, -7.5542717464837605e-001,
             -6.6662970992978066e-001, -9.3845997709703766e-001,
             -9.4925672487812451e-001, -9.7673529452044716e-001,
             -8.9593457887994343e-001, -8.6708675295585924e-001,
             -9.6874709303675410e-001, -8.1534592481984502e-001,
             -9.3351872302543848e-001, -9.3594654471433036e-001,
             -9.3516859403850205e-001, -7.9441386471869013e-001,
             -8.8772431603938029e-001, -8.4089299003004558e-001,
             -8.4524195168651273e-001, -7.8636847041483471e-001,
             -9.3116539019268485e-001, -9.0327831657446034e-001 ]
         index: [ 0, 1, 2, 3, 4, 5, 6, 7, 8, 9, 10, 11, 12, 13, 14, 15,
             16, 17, 18, 19, 20, 21, 22, 23, 24, 25, 26, 27, 28, 29, 30,
             31, 32, 33, 34, 35, 36, 37, 38, 39, 40, 41, 42, 43, 44, 45,
             46, 47, 48, 49, 50, 51, 52, 53, 54, 55, 56, 57, 58, 59, 60,
             61, 62, 63, 64, 65, 66, 67, 68, 69, 70, 71, 72, 73, 74, 75,
             76, 77, 78, 79, 80, 81, 82, 83, 84, 85, 86, 87, 88, 89, 90,
             91, 92, 93, 94, 95, 96, 97, 98, 99, 100, 101, 102, 103, 104,
             105, 106, 107, 108, 109, 110, 111, 112, 113, 114, 115, 116,
             117, 118, 119, 120, 121, 122, 123, 124, 125, 126, 127, 128,
             129, 130, 131, 132, 133, 134, 135, 136, 137, 138, 139, 140,
             141 ]
